digraph Tree {
node [shape=box, style="filled, rounded", color="black", fontname=helvetica] ;
edge [fontname=helvetica] ;
0 [label=<Bank Count &le; 13369.0<br/>gini = 0.587<br/>samples = 5000<br/>value = [2274, 2208, 518]<br/>class = Player>, fillcolor="#e5813906"] ;
1 [label=<Player Count &le; -8696.0<br/>gini = 0.587<br/>samples = 4727<br/>value = [2179, 2060, 488]<br/>class = Player>, fillcolor="#e581390b"] ;
0 -> 1 [labeldistance=2.5, labelangle=45, headlabel="True"] ;
2 [label=<Bank Count &le; 8667.0<br/>gini = 0.558<br/>samples = 363<br/>value = [205, 122, 36]<br/>class = Player>, fillcolor="#e5813958"] ;
1 -> 2 ;
3 [label=<gini = 0.0<br/>samples = 13<br/>value = [13, 0, 0]<br/>class = Player>, fillcolor="#e58139ff"] ;
2 -> 3 ;
4 [label=<Tie Count &le; 98838.0<br/>gini = 0.567<br/>samples = 350<br/>value = [192, 122, 36]<br/>class = Player>, fillcolor="#e581394e"] ;
2 -> 4 ;
5 [label=<Tie Count &le; 89528.5<br/>gini = 0.545<br/>samples = 272<br/>value = [159, 88, 25]<br/>class = Player>, fillcolor="#e5813962"] ;
4 -> 5 ;
6 [label=<Tie Count &le; 87416.5<br/>gini = 0.569<br/>samples = 247<br/>value = [134, 88, 25]<br/>class = Player>, fillcolor="#e581394a"] ;
5 -> 6 ;
7 [label=<Tie Count &le; 54559.5<br/>gini = 0.566<br/>samples = 241<br/>value = [133, 83, 25]<br/>class = Player>, fillcolor="#e5813951"] ;
6 -> 7 ;
8 [label=<Tie Count &le; -86705.5<br/>gini = 0.574<br/>samples = 162<br/>value = [82, 65, 15]<br/>class = Player>, fillcolor="#e581392d"] ;
7 -> 8 ;
9 [label=<Bank Count &le; 10680.0<br/>gini = 0.398<br/>samples = 16<br/>value = [12, 3, 1]<br/>class = Player>, fillcolor="#e58139b1"] ;
8 -> 9 ;
10 [label=<gini = 0.0<br/>samples = 9<br/>value = [9, 0, 0]<br/>class = Player>, fillcolor="#e58139ff"] ;
9 -> 10 ;
11 [label=<Regular Count &le; 18.5<br/>gini = 0.612<br/>samples = 7<br/>value = [3, 3, 1]<br/>class = Player>, fillcolor="#e5813900"] ;
9 -> 11 ;
12 [label=<Regular Count &le; 17.5<br/>gini = 0.375<br/>samples = 4<br/>value = [0, 3, 1]<br/>class = Banker>, fillcolor="#39e581aa"] ;
11 -> 12 ;
13 [label=<Player Count &le; -11789.0<br/>gini = 0.5<br/>samples = 2<br/>value = [0, 1, 1]<br/>class = Banker>, fillcolor="#39e58100"] ;
12 -> 13 ;
14 [label=<gini = 0.0<br/>samples = 1<br/>value = [0, 0, 1]<br/>class = Tie>, fillcolor="#8139e5ff"] ;
13 -> 14 ;
15 [label=<gini = 0.0<br/>samples = 1<br/>value = [0, 1, 0]<br/>class = Banker>, fillcolor="#39e581ff"] ;
13 -> 15 ;
16 [label=<gini = 0.0<br/>samples = 2<br/>value = [0, 2, 0]<br/>class = Banker>, fillcolor="#39e581ff"] ;
12 -> 16 ;
17 [label=<gini = 0.0<br/>samples = 3<br/>value = [3, 0, 0]<br/>class = Player>, fillcolor="#e58139ff"] ;
11 -> 17 ;
18 [label=<Tie Count &le; -69940.0<br/>gini = 0.581<br/>samples = 146<br/>value = [70, 62, 14]<br/>class = Player>, fillcolor="#e5813918"] ;
8 -> 18 ;
19 [label=<Bank Count &le; 9703.5<br/>gini = 0.357<br/>samples = 14<br/>value = [2, 11, 1]<br/>class = Banker>, fillcolor="#39e581bf"] ;
18 -> 19 ;
20 [label=<Tie Count &le; -77387.5<br/>gini = 0.444<br/>samples = 3<br/>value = [2, 1, 0]<br/>class = Player>, fillcolor="#e581397f"] ;
19 -> 20 ;
21 [label=<gini = 0.0<br/>samples = 2<br/>value = [2, 0, 0]<br/>class = Player>, fillcolor="#e58139ff"] ;
20 -> 21 ;
22 [label=<gini = 0.0<br/>samples = 1<br/>value = [0, 1, 0]<br/>class = Banker>, fillcolor="#39e581ff"] ;
20 -> 22 ;
23 [label=<Regular Count &le; 13.5<br/>gini = 0.165<br/>samples = 11<br/>value = [0, 10, 1]<br/>class = Banker>, fillcolor="#39e581e6"] ;
19 -> 23 ;
24 [label=<gini = 0.0<br/>samples = 10<br/>value = [0, 10, 0]<br/>class = Banker>, fillcolor="#39e581ff"] ;
23 -> 24 ;
25 [label=<gini = 0.0<br/>samples = 1<br/>value = [0, 0, 1]<br/>class = Tie>, fillcolor="#8139e5ff"] ;
23 -> 25 ;
26 [label=<Tie Count &le; -17929.0<br/>gini = 0.576<br/>samples = 132<br/>value = [68, 51, 13]<br/>class = Player>, fillcolor="#e5813936"] ;
18 -> 26 ;
27 [label=<Bank Count &le; 8804.5<br/>gini = 0.142<br/>samples = 13<br/>value = [12, 1, 0]<br/>class = Player>, fillcolor="#e58139ea"] ;
26 -> 27 ;
28 [label=<gini = 0.0<br/>samples = 1<br/>value = [0, 1, 0]<br/>class = Banker>, fillcolor="#39e581ff"] ;
27 -> 28 ;
29 [label=<gini = 0.0<br/>samples = 12<br/>value = [12, 0, 0]<br/>class = Player>, fillcolor="#e58139ff"] ;
27 -> 29 ;
30 [label=<Tie Count &le; -7071.0<br/>gini = 0.59<br/>samples = 119<br/>value = [56, 50, 13]<br/>class = Player>, fillcolor="#e5813916"] ;
26 -> 30 ;
31 [label=<Tie Count &le; -9588.0<br/>gini = 0.5<br/>samples = 6<br/>value = [1, 1, 4]<br/>class = Tie>, fillcolor="#8139e599"] ;
30 -> 31 ;
32 [label=<Regular Count &le; 7.0<br/>gini = 0.5<br/>samples = 2<br/>value = [1, 1, 0]<br/>class = Player>, fillcolor="#e5813900"] ;
31 -> 32 ;
33 [label=<gini = 0.0<br/>samples = 1<br/>value = [0, 1, 0]<br/>class = Banker>, fillcolor="#39e581ff"] ;
32 -> 33 ;
34 [label=<gini = 0.0<br/>samples = 1<br/>value = [1, 0, 0]<br/>class = Player>, fillcolor="#e58139ff"] ;
32 -> 34 ;
35 [label=<gini = 0.0<br/>samples = 4<br/>value = [0, 0, 4]<br/>class = Tie>, fillcolor="#8139e5ff"] ;
31 -> 35 ;
36 [label=<Player Count &le; -13238.0<br/>gini = 0.569<br/>samples = 113<br/>value = [55, 49, 9]<br/>class = Player>, fillcolor="#e5813918"] ;
30 -> 36 ;
37 [label=<Bank Count &le; 13275.0<br/>gini = 0.219<br/>samples = 8<br/>value = [7, 1, 0]<br/>class = Player>, fillcolor="#e58139db"] ;
36 -> 37 ;
38 [label=<gini = 0.0<br/>samples = 7<br/>value = [7, 0, 0]<br/>class = Player>, fillcolor="#e58139ff"] ;
37 -> 38 ;
39 [label=<gini = 0.0<br/>samples = 1<br/>value = [0, 1, 0]<br/>class = Banker>, fillcolor="#39e581ff"] ;
37 -> 39 ;
40 [label=<Tie Count &le; -5217.0<br/>gini = 0.575<br/>samples = 105<br/>value = [48, 48, 9]<br/>class = Player>, fillcolor="#e5813900"] ;
36 -> 40 ;
41 [label=<gini = 0.0<br/>samples = 3<br/>value = [3, 0, 0]<br/>class = Player>, fillcolor="#e58139ff"] ;
40 -> 41 ;
42 [label=<Tie Count &le; 8924.0<br/>gini = 0.576<br/>samples = 102<br/>value = [45, 48, 9]<br/>class = Banker>, fillcolor="#39e5810d"] ;
40 -> 42 ;
43 [label=<gini = 0.0<br/>samples = 7<br/>value = [0, 7, 0]<br/>class = Banker>, fillcolor="#39e581ff"] ;
42 -> 43 ;
44 [label=<Tie Count &le; 40158.0<br/>gini = 0.58<br/>samples = 95<br/>value = [45, 41, 9]<br/>class = Player>, fillcolor="#e5813913"] ;
42 -> 44 ;
45 [label=<Tie Count &le; 36271.0<br/>gini = 0.588<br/>samples = 53<br/>value = [28, 18, 7]<br/>class = Player>, fillcolor="#e5813949"] ;
44 -> 45 ;
46 [label=<Tie Count &le; 35198.0<br/>gini = 0.615<br/>samples = 46<br/>value = [21, 18, 7]<br/>class = Player>, fillcolor="#e581391b"] ;
45 -> 46 ;
47 [label=<Player Count &le; -9566.5<br/>gini = 0.613<br/>samples = 43<br/>value = [21, 15, 7]<br/>class = Player>, fillcolor="#e5813937"] ;
46 -> 47 ;
48 [label=<Regular Count &le; 3.5<br/>gini = 0.627<br/>samples = 35<br/>value = [14, 15, 6]<br/>class = Banker>, fillcolor="#39e5810c"] ;
47 -> 48 ;
49 [label=<Tie Count &le; 22613.5<br/>gini = 0.635<br/>samples = 23<br/>value = [6, 11, 6]<br/>class = Banker>, fillcolor="#39e5814b"] ;
48 -> 49 ;
50 [label=<Tie Count &le; 12986.5<br/>gini = 0.496<br/>samples = 11<br/>value = [5, 6, 0]<br/>class = Banker>, fillcolor="#39e5812a"] ;
49 -> 50 ;
51 [label=<gini = 0.0<br/>samples = 2<br/>value = [2, 0, 0]<br/>class = Player>, fillcolor="#e58139ff"] ;
50 -> 51 ;
52 [label=<Tie Count &le; 21079.5<br/>gini = 0.444<br/>samples = 9<br/>value = [3, 6, 0]<br/>class = Banker>, fillcolor="#39e5817f"] ;
50 -> 52 ;
53 [label=<gini = 0.0<br/>samples = 4<br/>value = [0, 4, 0]<br/>class = Banker>, fillcolor="#39e581ff"] ;
52 -> 53 ;
54 [label=<Regular Count &le; -4.5<br/>gini = 0.48<br/>samples = 5<br/>value = [3, 2, 0]<br/>class = Player>, fillcolor="#e5813955"] ;
52 -> 54 ;
55 [label=<Tie Count &le; 21612.5<br/>gini = 0.444<br/>samples = 3<br/>value = [1, 2, 0]<br/>class = Banker>, fillcolor="#39e5817f"] ;
54 -> 55 ;
56 [label=<gini = 0.0<br/>samples = 1<br/>value = [1, 0, 0]<br/>class = Player>, fillcolor="#e58139ff"] ;
55 -> 56 ;
57 [label=<gini = 0.0<br/>samples = 2<br/>value = [0, 2, 0]<br/>class = Banker>, fillcolor="#39e581ff"] ;
55 -> 57 ;
58 [label=<gini = 0.0<br/>samples = 2<br/>value = [2, 0, 0]<br/>class = Player>, fillcolor="#e58139ff"] ;
54 -> 58 ;
59 [label=<Player Count &le; -12049.0<br/>gini = 0.569<br/>samples = 12<br/>value = [1, 5, 6]<br/>class = Tie>, fillcolor="#8139e524"] ;
49 -> 59 ;
60 [label=<gini = 0.0<br/>samples = 4<br/>value = [0, 0, 4]<br/>class = Tie>, fillcolor="#8139e5ff"] ;
59 -> 60 ;
61 [label=<Regular Count &le; -0.5<br/>gini = 0.531<br/>samples = 8<br/>value = [1, 5, 2]<br/>class = Banker>, fillcolor="#39e58180"] ;
59 -> 61 ;
62 [label=<Bank Count &le; 10036.0<br/>gini = 0.449<br/>samples = 7<br/>value = [1, 5, 1]<br/>class = Banker>, fillcolor="#39e581aa"] ;
61 -> 62 ;
63 [label=<Regular Count &le; -2.0<br/>gini = 0.625<br/>samples = 4<br/>value = [1, 2, 1]<br/>class = Banker>, fillcolor="#39e58155"] ;
62 -> 63 ;
64 [label=<Tie Count &le; 32572.0<br/>gini = 0.5<br/>samples = 2<br/>value = [1, 0, 1]<br/>class = Player>, fillcolor="#e5813900"] ;
63 -> 64 ;
65 [label=<gini = 0.0<br/>samples = 1<br/>value = [1, 0, 0]<br/>class = Player>, fillcolor="#e58139ff"] ;
64 -> 65 ;
66 [label=<gini = 0.0<br/>samples = 1<br/>value = [0, 0, 1]<br/>class = Tie>, fillcolor="#8139e5ff"] ;
64 -> 66 ;
67 [label=<gini = 0.0<br/>samples = 2<br/>value = [0, 2, 0]<br/>class = Banker>, fillcolor="#39e581ff"] ;
63 -> 67 ;
68 [label=<gini = 0.0<br/>samples = 3<br/>value = [0, 3, 0]<br/>class = Banker>, fillcolor="#39e581ff"] ;
62 -> 68 ;
69 [label=<gini = 0.0<br/>samples = 1<br/>value = [0, 0, 1]<br/>class = Tie>, fillcolor="#8139e5ff"] ;
61 -> 69 ;
70 [label=<Regular Count &le; 8.5<br/>gini = 0.444<br/>samples = 12<br/>value = [8, 4, 0]<br/>class = Player>, fillcolor="#e581397f"] ;
48 -> 70 ;
71 [label=<gini = 0.0<br/>samples = 6<br/>value = [6, 0, 0]<br/>class = Player>, fillcolor="#e58139ff"] ;
70 -> 71 ;
72 [label=<Player Count &le; -11942.5<br/>gini = 0.444<br/>samples = 6<br/>value = [2, 4, 0]<br/>class = Banker>, fillcolor="#39e5817f"] ;
70 -> 72 ;
73 [label=<Player Count &le; -12773.0<br/>gini = 0.444<br/>samples = 3<br/>value = [2, 1, 0]<br/>class = Player>, fillcolor="#e581397f"] ;
72 -> 73 ;
74 [label=<gini = 0.0<br/>samples = 1<br/>value = [0, 1, 0]<br/>class = Banker>, fillcolor="#39e581ff"] ;
73 -> 74 ;
75 [label=<gini = 0.0<br/>samples = 2<br/>value = [2, 0, 0]<br/>class = Player>, fillcolor="#e58139ff"] ;
73 -> 75 ;
76 [label=<gini = 0.0<br/>samples = 3<br/>value = [0, 3, 0]<br/>class = Banker>, fillcolor="#39e581ff"] ;
72 -> 76 ;
77 [label=<Tie Count &le; 24587.0<br/>gini = 0.219<br/>samples = 8<br/>value = [7, 0, 1]<br/>class = Player>, fillcolor="#e58139db"] ;
47 -> 77 ;
78 [label=<Player Count &le; -9020.0<br/>gini = 0.5<br/>samples = 2<br/>value = [1, 0, 1]<br/>class = Player>, fillcolor="#e5813900"] ;
77 -> 78 ;
79 [label=<gini = 0.0<br/>samples = 1<br/>value = [0, 0, 1]<br/>class = Tie>, fillcolor="#8139e5ff"] ;
78 -> 79 ;
80 [label=<gini = 0.0<br/>samples = 1<br/>value = [1, 0, 0]<br/>class = Player>, fillcolor="#e58139ff"] ;
78 -> 80 ;
81 [label=<gini = 0.0<br/>samples = 6<br/>value = [6, 0, 0]<br/>class = Player>, fillcolor="#e58139ff"] ;
77 -> 81 ;
82 [label=<gini = 0.0<br/>samples = 3<br/>value = [0, 3, 0]<br/>class = Banker>, fillcolor="#39e581ff"] ;
46 -> 82 ;
83 [label=<gini = 0.0<br/>samples = 7<br/>value = [7, 0, 0]<br/>class = Player>, fillcolor="#e58139ff"] ;
45 -> 83 ;
84 [label=<Tie Count &le; 42287.5<br/>gini = 0.534<br/>samples = 42<br/>value = [17, 23, 2]<br/>class = Banker>, fillcolor="#39e5813d"] ;
44 -> 84 ;
85 [label=<Tie Count &le; 41362.5<br/>gini = 0.219<br/>samples = 8<br/>value = [0, 7, 1]<br/>class = Banker>, fillcolor="#39e581db"] ;
84 -> 85 ;
86 [label=<gini = 0.0<br/>samples = 6<br/>value = [0, 6, 0]<br/>class = Banker>, fillcolor="#39e581ff"] ;
85 -> 86 ;
87 [label=<Regular Count &le; -1.5<br/>gini = 0.5<br/>samples = 2<br/>value = [0, 1, 1]<br/>class = Banker>, fillcolor="#39e58100"] ;
85 -> 87 ;
88 [label=<gini = 0.0<br/>samples = 1<br/>value = [0, 1, 0]<br/>class = Banker>, fillcolor="#39e581ff"] ;
87 -> 88 ;
89 [label=<gini = 0.0<br/>samples = 1<br/>value = [0, 0, 1]<br/>class = Tie>, fillcolor="#8139e5ff"] ;
87 -> 89 ;
90 [label=<Tie Count &le; 43177.5<br/>gini = 0.528<br/>samples = 34<br/>value = [17, 16, 1]<br/>class = Player>, fillcolor="#e581390e"] ;
84 -> 90 ;
91 [label=<gini = 0.0<br/>samples = 4<br/>value = [4, 0, 0]<br/>class = Player>, fillcolor="#e58139ff"] ;
90 -> 91 ;
92 [label=<Bank Count &le; 12732.0<br/>gini = 0.527<br/>samples = 30<br/>value = [13, 16, 1]<br/>class = Banker>, fillcolor="#39e5812d"] ;
90 -> 92 ;
93 [label=<Regular Count &le; -6.5<br/>gini = 0.51<br/>samples = 27<br/>value = [10, 16, 1]<br/>class = Banker>, fillcolor="#39e5815a"] ;
92 -> 93 ;
94 [label=<gini = 0.0<br/>samples = 2<br/>value = [2, 0, 0]<br/>class = Player>, fillcolor="#e58139ff"] ;
93 -> 94 ;
95 [label=<Player Count &le; -9303.0<br/>gini = 0.486<br/>samples = 25<br/>value = [8, 16, 1]<br/>class = Banker>, fillcolor="#39e58178"] ;
93 -> 95 ;
96 [label=<Bank Count &le; 12424.0<br/>gini = 0.488<br/>samples = 19<br/>value = [8, 11, 0]<br/>class = Banker>, fillcolor="#39e58146"] ;
95 -> 96 ;
97 [label=<Regular Count &le; -5.0<br/>gini = 0.498<br/>samples = 15<br/>value = [8, 7, 0]<br/>class = Player>, fillcolor="#e5813920"] ;
96 -> 97 ;
98 [label=<gini = 0.0<br/>samples = 2<br/>value = [0, 2, 0]<br/>class = Banker>, fillcolor="#39e581ff"] ;
97 -> 98 ;
99 [label=<Regular Count &le; 6.5<br/>gini = 0.473<br/>samples = 13<br/>value = [8, 5, 0]<br/>class = Player>, fillcolor="#e5813960"] ;
97 -> 99 ;
100 [label=<Tie Count &le; 50001.5<br/>gini = 0.397<br/>samples = 11<br/>value = [8, 3, 0]<br/>class = Player>, fillcolor="#e581399f"] ;
99 -> 100 ;
101 [label=<Regular Count &le; 3.5<br/>gini = 0.5<br/>samples = 6<br/>value = [3, 3, 0]<br/>class = Player>, fillcolor="#e5813900"] ;
100 -> 101 ;
102 [label=<Bank Count &le; 11740.5<br/>gini = 0.375<br/>samples = 4<br/>value = [1, 3, 0]<br/>class = Banker>, fillcolor="#39e581aa"] ;
101 -> 102 ;
103 [label=<gini = 0.0<br/>samples = 3<br/>value = [0, 3, 0]<br/>class = Banker>, fillcolor="#39e581ff"] ;
102 -> 103 ;
104 [label=<gini = 0.0<br/>samples = 1<br/>value = [1, 0, 0]<br/>class = Player>, fillcolor="#e58139ff"] ;
102 -> 104 ;
105 [label=<gini = 0.0<br/>samples = 2<br/>value = [2, 0, 0]<br/>class = Player>, fillcolor="#e58139ff"] ;
101 -> 105 ;
106 [label=<gini = 0.0<br/>samples = 5<br/>value = [5, 0, 0]<br/>class = Player>, fillcolor="#e58139ff"] ;
100 -> 106 ;
107 [label=<gini = 0.0<br/>samples = 2<br/>value = [0, 2, 0]<br/>class = Banker>, fillcolor="#39e581ff"] ;
99 -> 107 ;
108 [label=<gini = 0.0<br/>samples = 4<br/>value = [0, 4, 0]<br/>class = Banker>, fillcolor="#39e581ff"] ;
96 -> 108 ;
109 [label=<Regular Count &le; -5.5<br/>gini = 0.278<br/>samples = 6<br/>value = [0, 5, 1]<br/>class = Banker>, fillcolor="#39e581cc"] ;
95 -> 109 ;
110 [label=<gini = 0.0<br/>samples = 1<br/>value = [0, 0, 1]<br/>class = Tie>, fillcolor="#8139e5ff"] ;
109 -> 110 ;
111 [label=<gini = 0.0<br/>samples = 5<br/>value = [0, 5, 0]<br/>class = Banker>, fillcolor="#39e581ff"] ;
109 -> 111 ;
112 [label=<gini = 0.0<br/>samples = 3<br/>value = [3, 0, 0]<br/>class = Player>, fillcolor="#e58139ff"] ;
92 -> 112 ;
113 [label=<Player Count &le; -12488.5<br/>gini = 0.515<br/>samples = 79<br/>value = [51, 18, 10]<br/>class = Player>, fillcolor="#e581398a"] ;
7 -> 113 ;
114 [label=<Tie Count &le; 73806.5<br/>gini = 0.595<br/>samples = 25<br/>value = [10, 12, 3]<br/>class = Banker>, fillcolor="#39e58122"] ;
113 -> 114 ;
115 [label=<Bank Count &le; 12455.0<br/>gini = 0.355<br/>samples = 13<br/>value = [10, 3, 0]<br/>class = Player>, fillcolor="#e58139b3"] ;
114 -> 115 ;
116 [label=<gini = 0.0<br/>samples = 2<br/>value = [0, 2, 0]<br/>class = Banker>, fillcolor="#39e581ff"] ;
115 -> 116 ;
117 [label=<Regular Count &le; -0.5<br/>gini = 0.165<br/>samples = 11<br/>value = [10, 1, 0]<br/>class = Player>, fillcolor="#e58139e6"] ;
115 -> 117 ;
118 [label=<Player Count &le; -13125.5<br/>gini = 0.5<br/>samples = 2<br/>value = [1, 1, 0]<br/>class = Player>, fillcolor="#e5813900"] ;
117 -> 118 ;
119 [label=<gini = 0.0<br/>samples = 1<br/>value = [0, 1, 0]<br/>class = Banker>, fillcolor="#39e581ff"] ;
118 -> 119 ;
120 [label=<gini = 0.0<br/>samples = 1<br/>value = [1, 0, 0]<br/>class = Player>, fillcolor="#e58139ff"] ;
118 -> 120 ;
121 [label=<gini = 0.0<br/>samples = 9<br/>value = [9, 0, 0]<br/>class = Player>, fillcolor="#e58139ff"] ;
117 -> 121 ;
122 [label=<Regular Count &le; 5.5<br/>gini = 0.375<br/>samples = 12<br/>value = [0, 9, 3]<br/>class = Banker>, fillcolor="#39e581aa"] ;
114 -> 122 ;
123 [label=<Regular Count &le; -9.5<br/>gini = 0.18<br/>samples = 10<br/>value = [0, 9, 1]<br/>class = Banker>, fillcolor="#39e581e3"] ;
122 -> 123 ;
124 [label=<gini = 0.0<br/>samples = 1<br/>value = [0, 0, 1]<br/>class = Tie>, fillcolor="#8139e5ff"] ;
123 -> 124 ;
125 [label=<gini = 0.0<br/>samples = 9<br/>value = [0, 9, 0]<br/>class = Banker>, fillcolor="#39e581ff"] ;
123 -> 125 ;
126 [label=<gini = 0.0<br/>samples = 2<br/>value = [0, 0, 2]<br/>class = Tie>, fillcolor="#8139e5ff"] ;
122 -> 126 ;
127 [label=<Bank Count &le; 9162.0<br/>gini = 0.394<br/>samples = 54<br/>value = [41, 6, 7]<br/>class = Player>, fillcolor="#e58139b8"] ;
113 -> 127 ;
128 [label=<gini = 0.0<br/>samples = 3<br/>value = [0, 3, 0]<br/>class = Banker>, fillcolor="#39e581ff"] ;
127 -> 128 ;
129 [label=<Tie Count &le; 86824.0<br/>gini = 0.331<br/>samples = 51<br/>value = [41, 3, 7]<br/>class = Player>, fillcolor="#e58139c5"] ;
127 -> 129 ;
130 [label=<Tie Count &le; 60779.0<br/>gini = 0.286<br/>samples = 49<br/>value = [41, 3, 5]<br/>class = Player>, fillcolor="#e58139d1"] ;
129 -> 130 ;
131 [label=<Regular Count &le; 2.5<br/>gini = 0.58<br/>samples = 10<br/>value = [5, 1, 4]<br/>class = Player>, fillcolor="#e581392a"] ;
130 -> 131 ;
132 [label=<Bank Count &le; 10663.0<br/>gini = 0.5<br/>samples = 6<br/>value = [1, 1, 4]<br/>class = Tie>, fillcolor="#8139e599"] ;
131 -> 132 ;
133 [label=<Bank Count &le; 9625.0<br/>gini = 0.5<br/>samples = 2<br/>value = [1, 1, 0]<br/>class = Player>, fillcolor="#e5813900"] ;
132 -> 133 ;
134 [label=<gini = 0.0<br/>samples = 1<br/>value = [0, 1, 0]<br/>class = Banker>, fillcolor="#39e581ff"] ;
133 -> 134 ;
135 [label=<gini = 0.0<br/>samples = 1<br/>value = [1, 0, 0]<br/>class = Player>, fillcolor="#e58139ff"] ;
133 -> 135 ;
136 [label=<gini = 0.0<br/>samples = 4<br/>value = [0, 0, 4]<br/>class = Tie>, fillcolor="#8139e5ff"] ;
132 -> 136 ;
137 [label=<gini = 0.0<br/>samples = 4<br/>value = [4, 0, 0]<br/>class = Player>, fillcolor="#e58139ff"] ;
131 -> 137 ;
138 [label=<Player Count &le; -9906.5<br/>gini = 0.145<br/>samples = 39<br/>value = [36, 2, 1]<br/>class = Player>, fillcolor="#e58139ea"] ;
130 -> 138 ;
139 [label=<Regular Count &le; -8.5<br/>gini = 0.059<br/>samples = 33<br/>value = [32, 1, 0]<br/>class = Player>, fillcolor="#e58139f7"] ;
138 -> 139 ;
140 [label=<Player Count &le; -11485.5<br/>gini = 0.278<br/>samples = 6<br/>value = [5, 1, 0]<br/>class = Player>, fillcolor="#e58139cc"] ;
139 -> 140 ;
141 [label=<gini = 0.0<br/>samples = 1<br/>value = [0, 1, 0]<br/>class = Banker>, fillcolor="#39e581ff"] ;
140 -> 141 ;
142 [label=<gini = 0.0<br/>samples = 5<br/>value = [5, 0, 0]<br/>class = Player>, fillcolor="#e58139ff"] ;
140 -> 142 ;
143 [label=<gini = 0.0<br/>samples = 27<br/>value = [27, 0, 0]<br/>class = Player>, fillcolor="#e58139ff"] ;
139 -> 143 ;
144 [label=<Tie Count &le; 83948.0<br/>gini = 0.5<br/>samples = 6<br/>value = [4, 1, 1]<br/>class = Player>, fillcolor="#e5813999"] ;
138 -> 144 ;
145 [label=<Bank Count &le; 9608.0<br/>gini = 0.32<br/>samples = 5<br/>value = [4, 1, 0]<br/>class = Player>, fillcolor="#e58139bf"] ;
144 -> 145 ;
146 [label=<gini = 0.0<br/>samples = 4<br/>value = [4, 0, 0]<br/>class = Player>, fillcolor="#e58139ff"] ;
145 -> 146 ;
147 [label=<gini = 0.0<br/>samples = 1<br/>value = [0, 1, 0]<br/>class = Banker>, fillcolor="#39e581ff"] ;
145 -> 147 ;
148 [label=<gini = 0.0<br/>samples = 1<br/>value = [0, 0, 1]<br/>class = Tie>, fillcolor="#8139e5ff"] ;
144 -> 148 ;
149 [label=<gini = 0.0<br/>samples = 2<br/>value = [0, 0, 2]<br/>class = Tie>, fillcolor="#8139e5ff"] ;
129 -> 149 ;
150 [label=<Player Count &le; -11776.5<br/>gini = 0.278<br/>samples = 6<br/>value = [1, 5, 0]<br/>class = Banker>, fillcolor="#39e581cc"] ;
6 -> 150 ;
151 [label=<Regular Count &le; -8.5<br/>gini = 0.5<br/>samples = 2<br/>value = [1, 1, 0]<br/>class = Player>, fillcolor="#e5813900"] ;
150 -> 151 ;
152 [label=<gini = 0.0<br/>samples = 1<br/>value = [1, 0, 0]<br/>class = Player>, fillcolor="#e58139ff"] ;
151 -> 152 ;
153 [label=<gini = 0.0<br/>samples = 1<br/>value = [0, 1, 0]<br/>class = Banker>, fillcolor="#39e581ff"] ;
151 -> 153 ;
154 [label=<gini = 0.0<br/>samples = 4<br/>value = [0, 4, 0]<br/>class = Banker>, fillcolor="#39e581ff"] ;
150 -> 154 ;
155 [label=<gini = 0.0<br/>samples = 25<br/>value = [25, 0, 0]<br/>class = Player>, fillcolor="#e58139ff"] ;
5 -> 155 ;
156 [label=<Tie Count &le; 136039.0<br/>gini = 0.611<br/>samples = 78<br/>value = [33, 34, 11]<br/>class = Banker>, fillcolor="#39e58106"] ;
4 -> 156 ;
157 [label=<Regular Count &le; 2.5<br/>gini = 0.612<br/>samples = 55<br/>value = [17, 28, 10]<br/>class = Banker>, fillcolor="#39e5814a"] ;
156 -> 157 ;
158 [label=<Tie Count &le; 98991.5<br/>gini = 0.581<br/>samples = 51<br/>value = [16, 28, 7]<br/>class = Banker>, fillcolor="#39e58157"] ;
157 -> 158 ;
159 [label=<gini = 0.0<br/>samples = 1<br/>value = [0, 0, 1]<br/>class = Tie>, fillcolor="#8139e5ff"] ;
158 -> 159 ;
160 [label=<Bank Count &le; 12628.0<br/>gini = 0.57<br/>samples = 50<br/>value = [16, 28, 6]<br/>class = Banker>, fillcolor="#39e5815a"] ;
158 -> 160 ;
161 [label=<Bank Count &le; 10803.5<br/>gini = 0.543<br/>samples = 43<br/>value = [12, 26, 5]<br/>class = Banker>, fillcolor="#39e58173"] ;
160 -> 161 ;
162 [label=<Regular Count &le; -1.5<br/>gini = 0.585<br/>samples = 20<br/>value = [9, 9, 2]<br/>class = Player>, fillcolor="#e5813900"] ;
161 -> 162 ;
163 [label=<Bank Count &le; 9903.5<br/>gini = 0.57<br/>samples = 16<br/>value = [9, 5, 2]<br/>class = Player>, fillcolor="#e581395d"] ;
162 -> 163 ;
164 [label=<Bank Count &le; 9689.5<br/>gini = 0.642<br/>samples = 9<br/>value = [3, 4, 2]<br/>class = Banker>, fillcolor="#39e5812a"] ;
163 -> 164 ;
165 [label=<Tie Count &le; 103780.0<br/>gini = 0.611<br/>samples = 6<br/>value = [3, 1, 2]<br/>class = Player>, fillcolor="#e5813940"] ;
164 -> 165 ;
166 [label=<gini = 0.0<br/>samples = 1<br/>value = [0, 1, 0]<br/>class = Banker>, fillcolor="#39e581ff"] ;
165 -> 166 ;
167 [label=<Regular Count &le; -9.0<br/>gini = 0.48<br/>samples = 5<br/>value = [3, 0, 2]<br/>class = Player>, fillcolor="#e5813955"] ;
165 -> 167 ;
168 [label=<Bank Count &le; 9073.5<br/>gini = 0.375<br/>samples = 4<br/>value = [3, 0, 1]<br/>class = Player>, fillcolor="#e58139aa"] ;
167 -> 168 ;
169 [label=<gini = 0.0<br/>samples = 1<br/>value = [0, 0, 1]<br/>class = Tie>, fillcolor="#8139e5ff"] ;
168 -> 169 ;
170 [label=<gini = 0.0<br/>samples = 3<br/>value = [3, 0, 0]<br/>class = Player>, fillcolor="#e58139ff"] ;
168 -> 170 ;
171 [label=<gini = 0.0<br/>samples = 1<br/>value = [0, 0, 1]<br/>class = Tie>, fillcolor="#8139e5ff"] ;
167 -> 171 ;
172 [label=<gini = 0.0<br/>samples = 3<br/>value = [0, 3, 0]<br/>class = Banker>, fillcolor="#39e581ff"] ;
164 -> 172 ;
173 [label=<Tie Count &le; 133018.5<br/>gini = 0.245<br/>samples = 7<br/>value = [6, 1, 0]<br/>class = Player>, fillcolor="#e58139d4"] ;
163 -> 173 ;
174 [label=<gini = 0.0<br/>samples = 6<br/>value = [6, 0, 0]<br/>class = Player>, fillcolor="#e58139ff"] ;
173 -> 174 ;
175 [label=<gini = 0.0<br/>samples = 1<br/>value = [0, 1, 0]<br/>class = Banker>, fillcolor="#39e581ff"] ;
173 -> 175 ;
176 [label=<gini = 0.0<br/>samples = 4<br/>value = [0, 4, 0]<br/>class = Banker>, fillcolor="#39e581ff"] ;
162 -> 176 ;
177 [label=<Bank Count &le; 11333.5<br/>gini = 0.42<br/>samples = 23<br/>value = [3, 17, 3]<br/>class = Banker>, fillcolor="#39e581b2"] ;
161 -> 177 ;
178 [label=<gini = 0.0<br/>samples = 9<br/>value = [0, 9, 0]<br/>class = Banker>, fillcolor="#39e581ff"] ;
177 -> 178 ;
179 [label=<Regular Count &le; -10.5<br/>gini = 0.582<br/>samples = 14<br/>value = [3, 8, 3]<br/>class = Banker>, fillcolor="#39e58174"] ;
177 -> 179 ;
180 [label=<gini = 0.0<br/>samples = 4<br/>value = [0, 4, 0]<br/>class = Banker>, fillcolor="#39e581ff"] ;
179 -> 180 ;
181 [label=<Bank Count &le; 12250.5<br/>gini = 0.66<br/>samples = 10<br/>value = [3, 4, 3]<br/>class = Banker>, fillcolor="#39e58124"] ;
179 -> 181 ;
182 [label=<Bank Count &le; 11774.0<br/>gini = 0.611<br/>samples = 6<br/>value = [2, 1, 3]<br/>class = Tie>, fillcolor="#8139e540"] ;
181 -> 182 ;
183 [label=<Player Count &le; -11417.5<br/>gini = 0.625<br/>samples = 4<br/>value = [2, 1, 1]<br/>class = Player>, fillcolor="#e5813955"] ;
182 -> 183 ;
184 [label=<Bank Count &le; 11651.0<br/>gini = 0.444<br/>samples = 3<br/>value = [2, 1, 0]<br/>class = Player>, fillcolor="#e581397f"] ;
183 -> 184 ;
185 [label=<gini = 0.0<br/>samples = 2<br/>value = [2, 0, 0]<br/>class = Player>, fillcolor="#e58139ff"] ;
184 -> 185 ;
186 [label=<gini = 0.0<br/>samples = 1<br/>value = [0, 1, 0]<br/>class = Banker>, fillcolor="#39e581ff"] ;
184 -> 186 ;
187 [label=<gini = 0.0<br/>samples = 1<br/>value = [0, 0, 1]<br/>class = Tie>, fillcolor="#8139e5ff"] ;
183 -> 187 ;
188 [label=<gini = 0.0<br/>samples = 2<br/>value = [0, 0, 2]<br/>class = Tie>, fillcolor="#8139e5ff"] ;
182 -> 188 ;
189 [label=<Regular Count &le; -8.5<br/>gini = 0.375<br/>samples = 4<br/>value = [1, 3, 0]<br/>class = Banker>, fillcolor="#39e581aa"] ;
181 -> 189 ;
190 [label=<gini = 0.0<br/>samples = 1<br/>value = [1, 0, 0]<br/>class = Player>, fillcolor="#e58139ff"] ;
189 -> 190 ;
191 [label=<gini = 0.0<br/>samples = 3<br/>value = [0, 3, 0]<br/>class = Banker>, fillcolor="#39e581ff"] ;
189 -> 191 ;
192 [label=<Tie Count &le; 106484.0<br/>gini = 0.571<br/>samples = 7<br/>value = [4, 2, 1]<br/>class = Player>, fillcolor="#e5813966"] ;
160 -> 192 ;
193 [label=<Player Count &le; -13174.5<br/>gini = 0.444<br/>samples = 3<br/>value = [0, 2, 1]<br/>class = Banker>, fillcolor="#39e5817f"] ;
192 -> 193 ;
194 [label=<gini = 0.0<br/>samples = 2<br/>value = [0, 2, 0]<br/>class = Banker>, fillcolor="#39e581ff"] ;
193 -> 194 ;
195 [label=<gini = 0.0<br/>samples = 1<br/>value = [0, 0, 1]<br/>class = Tie>, fillcolor="#8139e5ff"] ;
193 -> 195 ;
196 [label=<gini = 0.0<br/>samples = 4<br/>value = [4, 0, 0]<br/>class = Player>, fillcolor="#e58139ff"] ;
192 -> 196 ;
197 [label=<Tie Count &le; 110275.5<br/>gini = 0.375<br/>samples = 4<br/>value = [1, 0, 3]<br/>class = Tie>, fillcolor="#8139e5aa"] ;
157 -> 197 ;
198 [label=<gini = 0.0<br/>samples = 1<br/>value = [1, 0, 0]<br/>class = Player>, fillcolor="#e58139ff"] ;
197 -> 198 ;
199 [label=<gini = 0.0<br/>samples = 3<br/>value = [0, 0, 3]<br/>class = Tie>, fillcolor="#8139e5ff"] ;
197 -> 199 ;
200 [label=<Tie Count &le; 142983.0<br/>gini = 0.446<br/>samples = 23<br/>value = [16, 6, 1]<br/>class = Player>, fillcolor="#e5813996"] ;
156 -> 200 ;
201 [label=<Regular Count &le; -5.5<br/>gini = 0.198<br/>samples = 9<br/>value = [8, 0, 1]<br/>class = Player>, fillcolor="#e58139df"] ;
200 -> 201 ;
202 [label=<gini = 0.0<br/>samples = 7<br/>value = [7, 0, 0]<br/>class = Player>, fillcolor="#e58139ff"] ;
201 -> 202 ;
203 [label=<Player Count &le; -11275.5<br/>gini = 0.5<br/>samples = 2<br/>value = [1, 0, 1]<br/>class = Player>, fillcolor="#e5813900"] ;
201 -> 203 ;
204 [label=<gini = 0.0<br/>samples = 1<br/>value = [1, 0, 0]<br/>class = Player>, fillcolor="#e58139ff"] ;
203 -> 204 ;
205 [label=<gini = 0.0<br/>samples = 1<br/>value = [0, 0, 1]<br/>class = Tie>, fillcolor="#8139e5ff"] ;
203 -> 205 ;
206 [label=<Tie Count &le; 146777.0<br/>gini = 0.49<br/>samples = 14<br/>value = [8, 6, 0]<br/>class = Player>, fillcolor="#e5813940"] ;
200 -> 206 ;
207 [label=<gini = 0.0<br/>samples = 3<br/>value = [0, 3, 0]<br/>class = Banker>, fillcolor="#39e581ff"] ;
206 -> 207 ;
208 [label=<Player Count &le; -9657.0<br/>gini = 0.397<br/>samples = 11<br/>value = [8, 3, 0]<br/>class = Player>, fillcolor="#e581399f"] ;
206 -> 208 ;
209 [label=<Regular Count &le; -6.5<br/>gini = 0.198<br/>samples = 9<br/>value = [8, 1, 0]<br/>class = Player>, fillcolor="#e58139df"] ;
208 -> 209 ;
210 [label=<gini = 0.0<br/>samples = 8<br/>value = [8, 0, 0]<br/>class = Player>, fillcolor="#e58139ff"] ;
209 -> 210 ;
211 [label=<gini = 0.0<br/>samples = 1<br/>value = [0, 1, 0]<br/>class = Banker>, fillcolor="#39e581ff"] ;
209 -> 211 ;
212 [label=<gini = 0.0<br/>samples = 2<br/>value = [0, 2, 0]<br/>class = Banker>, fillcolor="#39e581ff"] ;
208 -> 212 ;
213 [label=<Regular Count &le; 7.5<br/>gini = 0.587<br/>samples = 4364<br/>value = [1974, 1938, 452]<br/>class = Player>, fillcolor="#e5813904"] ;
1 -> 213 ;
214 [label=<Tie Count &le; 132091.5<br/>gini = 0.586<br/>samples = 3369<br/>value = [1569, 1454, 346]<br/>class = Player>, fillcolor="#e581390f"] ;
213 -> 214 ;
215 [label=<Bank Count &le; -7232.0<br/>gini = 0.587<br/>samples = 3247<br/>value = [1528, 1382, 337]<br/>class = Player>, fillcolor="#e5813914"] ;
214 -> 215 ;
216 [label=<Player Count &le; 8077.0<br/>gini = 0.591<br/>samples = 571<br/>value = [236, 271, 64]<br/>class = Banker>, fillcolor="#39e5811b"] ;
215 -> 216 ;
217 [label=<Bank Count &le; -7571.5<br/>gini = 0.415<br/>samples = 77<br/>value = [13, 57, 7]<br/>class = Banker>, fillcolor="#39e581af"] ;
216 -> 217 ;
218 [label=<Tie Count &le; 54289.0<br/>gini = 0.119<br/>samples = 32<br/>value = [1, 30, 1]<br/>class = Banker>, fillcolor="#39e581ef"] ;
217 -> 218 ;
219 [label=<gini = 0.0<br/>samples = 30<br/>value = [0, 30, 0]<br/>class = Banker>, fillcolor="#39e581ff"] ;
218 -> 219 ;
220 [label=<Tie Count &le; 58229.5<br/>gini = 0.5<br/>samples = 2<br/>value = [1, 0, 1]<br/>class = Player>, fillcolor="#e5813900"] ;
218 -> 220 ;
221 [label=<gini = 0.0<br/>samples = 1<br/>value = [0, 0, 1]<br/>class = Tie>, fillcolor="#8139e5ff"] ;
220 -> 221 ;
222 [label=<gini = 0.0<br/>samples = 1<br/>value = [1, 0, 0]<br/>class = Player>, fillcolor="#e58139ff"] ;
220 -> 222 ;
223 [label=<Bank Count &le; -7533.5<br/>gini = 0.551<br/>samples = 45<br/>value = [12, 27, 6]<br/>class = Banker>, fillcolor="#39e58174"] ;
217 -> 223 ;
224 [label=<Regular Count &le; 2.5<br/>gini = 0.278<br/>samples = 6<br/>value = [5, 1, 0]<br/>class = Player>, fillcolor="#e58139cc"] ;
223 -> 224 ;
225 [label=<gini = 0.0<br/>samples = 5<br/>value = [5, 0, 0]<br/>class = Player>, fillcolor="#e58139ff"] ;
224 -> 225 ;
226 [label=<gini = 0.0<br/>samples = 1<br/>value = [0, 1, 0]<br/>class = Banker>, fillcolor="#39e581ff"] ;
224 -> 226 ;
227 [label=<Player Count &le; 7716.0<br/>gini = 0.5<br/>samples = 39<br/>value = [7, 26, 6]<br/>class = Banker>, fillcolor="#39e58197"] ;
223 -> 227 ;
228 [label=<Tie Count &le; -26590.0<br/>gini = 0.37<br/>samples = 31<br/>value = [5, 24, 2]<br/>class = Banker>, fillcolor="#39e581ba"] ;
227 -> 228 ;
229 [label=<Tie Count &le; -53757.0<br/>gini = 0.459<br/>samples = 14<br/>value = [5, 9, 0]<br/>class = Banker>, fillcolor="#39e58171"] ;
228 -> 229 ;
230 [label=<Tie Count &le; -92260.5<br/>gini = 0.198<br/>samples = 9<br/>value = [1, 8, 0]<br/>class = Banker>, fillcolor="#39e581df"] ;
229 -> 230 ;
231 [label=<Bank Count &le; -7288.0<br/>gini = 0.5<br/>samples = 2<br/>value = [1, 1, 0]<br/>class = Player>, fillcolor="#e5813900"] ;
230 -> 231 ;
232 [label=<gini = 0.0<br/>samples = 1<br/>value = [1, 0, 0]<br/>class = Player>, fillcolor="#e58139ff"] ;
231 -> 232 ;
233 [label=<gini = 0.0<br/>samples = 1<br/>value = [0, 1, 0]<br/>class = Banker>, fillcolor="#39e581ff"] ;
231 -> 233 ;
234 [label=<gini = 0.0<br/>samples = 7<br/>value = [0, 7, 0]<br/>class = Banker>, fillcolor="#39e581ff"] ;
230 -> 234 ;
235 [label=<Player Count &le; 7609.0<br/>gini = 0.32<br/>samples = 5<br/>value = [4, 1, 0]<br/>class = Player>, fillcolor="#e58139bf"] ;
229 -> 235 ;
236 [label=<gini = 0.0<br/>samples = 4<br/>value = [4, 0, 0]<br/>class = Player>, fillcolor="#e58139ff"] ;
235 -> 236 ;
237 [label=<gini = 0.0<br/>samples = 1<br/>value = [0, 1, 0]<br/>class = Banker>, fillcolor="#39e581ff"] ;
235 -> 237 ;
238 [label=<Bank Count &le; -7263.5<br/>gini = 0.208<br/>samples = 17<br/>value = [0, 15, 2]<br/>class = Banker>, fillcolor="#39e581dd"] ;
228 -> 238 ;
239 [label=<gini = 0.0<br/>samples = 14<br/>value = [0, 14, 0]<br/>class = Banker>, fillcolor="#39e581ff"] ;
238 -> 239 ;
240 [label=<Player Count &le; 7402.0<br/>gini = 0.444<br/>samples = 3<br/>value = [0, 1, 2]<br/>class = Tie>, fillcolor="#8139e57f"] ;
238 -> 240 ;
241 [label=<gini = 0.0<br/>samples = 1<br/>value = [0, 1, 0]<br/>class = Banker>, fillcolor="#39e581ff"] ;
240 -> 241 ;
242 [label=<gini = 0.0<br/>samples = 2<br/>value = [0, 0, 2]<br/>class = Tie>, fillcolor="#8139e5ff"] ;
240 -> 242 ;
243 [label=<Bank Count &le; -7462.5<br/>gini = 0.625<br/>samples = 8<br/>value = [2, 2, 4]<br/>class = Tie>, fillcolor="#8139e555"] ;
227 -> 243 ;
244 [label=<Bank Count &le; -7500.5<br/>gini = 0.5<br/>samples = 4<br/>value = [2, 2, 0]<br/>class = Player>, fillcolor="#e5813900"] ;
243 -> 244 ;
245 [label=<gini = 0.0<br/>samples = 2<br/>value = [2, 0, 0]<br/>class = Player>, fillcolor="#e58139ff"] ;
244 -> 245 ;
246 [label=<gini = 0.0<br/>samples = 2<br/>value = [0, 2, 0]<br/>class = Banker>, fillcolor="#39e581ff"] ;
244 -> 246 ;
247 [label=<gini = 0.0<br/>samples = 4<br/>value = [0, 0, 4]<br/>class = Tie>, fillcolor="#8139e5ff"] ;
243 -> 247 ;
248 [label=<Tie Count &le; -151545.5<br/>gini = 0.595<br/>samples = 494<br/>value = [223, 214, 57]<br/>class = Player>, fillcolor="#e5813908"] ;
216 -> 248 ;
249 [label=<Tie Count &le; -159677.5<br/>gini = 0.32<br/>samples = 15<br/>value = [12, 3, 0]<br/>class = Player>, fillcolor="#e58139bf"] ;
248 -> 249 ;
250 [label=<Bank Count &le; -28483.5<br/>gini = 0.49<br/>samples = 7<br/>value = [4, 3, 0]<br/>class = Player>, fillcolor="#e5813940"] ;
249 -> 250 ;
251 [label=<gini = 0.0<br/>samples = 3<br/>value = [3, 0, 0]<br/>class = Player>, fillcolor="#e58139ff"] ;
250 -> 251 ;
252 [label=<Tie Count &le; -176089.5<br/>gini = 0.375<br/>samples = 4<br/>value = [1, 3, 0]<br/>class = Banker>, fillcolor="#39e581aa"] ;
250 -> 252 ;
253 [label=<gini = 0.0<br/>samples = 1<br/>value = [1, 0, 0]<br/>class = Player>, fillcolor="#e58139ff"] ;
252 -> 253 ;
254 [label=<gini = 0.0<br/>samples = 3<br/>value = [0, 3, 0]<br/>class = Banker>, fillcolor="#39e581ff"] ;
252 -> 254 ;
255 [label=<gini = 0.0<br/>samples = 8<br/>value = [8, 0, 0]<br/>class = Player>, fillcolor="#e58139ff"] ;
249 -> 255 ;
256 [label=<Bank Count &le; -16042.0<br/>gini = 0.598<br/>samples = 479<br/>value = [211, 211, 57]<br/>class = Player>, fillcolor="#e5813900"] ;
248 -> 256 ;
257 [label=<Bank Count &le; -16257.0<br/>gini = 0.482<br/>samples = 74<br/>value = [25, 47, 2]<br/>class = Banker>, fillcolor="#39e58172"] ;
256 -> 257 ;
258 [label=<Player Count &le; 16780.5<br/>gini = 0.503<br/>samples = 67<br/>value = [25, 40, 2]<br/>class = Banker>, fillcolor="#39e5815b"] ;
257 -> 258 ;
259 [label=<Tie Count &le; -91616.5<br/>gini = 0.32<br/>samples = 5<br/>value = [4, 1, 0]<br/>class = Player>, fillcolor="#e58139bf"] ;
258 -> 259 ;
260 [label=<Player Count &le; 16395.0<br/>gini = 0.5<br/>samples = 2<br/>value = [1, 1, 0]<br/>class = Player>, fillcolor="#e5813900"] ;
259 -> 260 ;
261 [label=<gini = 0.0<br/>samples = 1<br/>value = [1, 0, 0]<br/>class = Player>, fillcolor="#e58139ff"] ;
260 -> 261 ;
262 [label=<gini = 0.0<br/>samples = 1<br/>value = [0, 1, 0]<br/>class = Banker>, fillcolor="#39e581ff"] ;
260 -> 262 ;
263 [label=<gini = 0.0<br/>samples = 3<br/>value = [3, 0, 0]<br/>class = Player>, fillcolor="#e58139ff"] ;
259 -> 263 ;
264 [label=<Bank Count &le; -16664.0<br/>gini = 0.489<br/>samples = 62<br/>value = [21, 39, 2]<br/>class = Banker>, fillcolor="#39e58170"] ;
258 -> 264 ;
265 [label=<Player Count &le; 25873.5<br/>gini = 0.507<br/>samples = 57<br/>value = [21, 34, 2]<br/>class = Banker>, fillcolor="#39e5815c"] ;
264 -> 265 ;
266 [label=<Regular Count &le; 3.5<br/>gini = 0.521<br/>samples = 53<br/>value = [21, 30, 2]<br/>class = Banker>, fillcolor="#39e58148"] ;
265 -> 266 ;
267 [label=<Regular Count &le; 2.5<br/>gini = 0.518<br/>samples = 45<br/>value = [20, 24, 1]<br/>class = Banker>, fillcolor="#39e58129"] ;
266 -> 267 ;
268 [label=<Regular Count &le; 1.5<br/>gini = 0.509<br/>samples = 42<br/>value = [17, 24, 1]<br/>class = Banker>, fillcolor="#39e58147"] ;
267 -> 268 ;
269 [label=<Bank Count &le; -17065.5<br/>gini = 0.519<br/>samples = 39<br/>value = [17, 21, 1]<br/>class = Banker>, fillcolor="#39e5812e"] ;
268 -> 269 ;
270 [label=<Regular Count &le; 0.0<br/>gini = 0.513<br/>samples = 35<br/>value = [14, 20, 1]<br/>class = Banker>, fillcolor="#39e58149"] ;
269 -> 270 ;
271 [label=<Regular Count &le; -20.5<br/>gini = 0.497<br/>samples = 31<br/>value = [11, 19, 1]<br/>class = Banker>, fillcolor="#39e58166"] ;
270 -> 271 ;
272 [label=<Bank Count &le; -18277.0<br/>gini = 0.444<br/>samples = 6<br/>value = [4, 2, 0]<br/>class = Player>, fillcolor="#e581397f"] ;
271 -> 272 ;
273 [label=<gini = 0.0<br/>samples = 3<br/>value = [3, 0, 0]<br/>class = Player>, fillcolor="#e58139ff"] ;
272 -> 273 ;
274 [label=<Player Count &le; 18492.5<br/>gini = 0.444<br/>samples = 3<br/>value = [1, 2, 0]<br/>class = Banker>, fillcolor="#39e5817f"] ;
272 -> 274 ;
275 [label=<gini = 0.0<br/>samples = 1<br/>value = [1, 0, 0]<br/>class = Player>, fillcolor="#e58139ff"] ;
274 -> 275 ;
276 [label=<gini = 0.0<br/>samples = 2<br/>value = [0, 2, 0]<br/>class = Banker>, fillcolor="#39e581ff"] ;
274 -> 276 ;
277 [label=<Regular Count &le; -17.5<br/>gini = 0.458<br/>samples = 25<br/>value = [7, 17, 1]<br/>class = Banker>, fillcolor="#39e5818e"] ;
271 -> 277 ;
278 [label=<Bank Count &le; -18416.5<br/>gini = 0.198<br/>samples = 9<br/>value = [1, 8, 0]<br/>class = Banker>, fillcolor="#39e581df"] ;
277 -> 278 ;
279 [label=<Player Count &le; 19861.5<br/>gini = 0.375<br/>samples = 4<br/>value = [1, 3, 0]<br/>class = Banker>, fillcolor="#39e581aa"] ;
278 -> 279 ;
280 [label=<gini = 0.0<br/>samples = 1<br/>value = [1, 0, 0]<br/>class = Player>, fillcolor="#e58139ff"] ;
279 -> 280 ;
281 [label=<gini = 0.0<br/>samples = 3<br/>value = [0, 3, 0]<br/>class = Banker>, fillcolor="#39e581ff"] ;
279 -> 281 ;
282 [label=<gini = 0.0<br/>samples = 5<br/>value = [0, 5, 0]<br/>class = Banker>, fillcolor="#39e581ff"] ;
278 -> 282 ;
283 [label=<Bank Count &le; -19029.0<br/>gini = 0.539<br/>samples = 16<br/>value = [6, 9, 1]<br/>class = Banker>, fillcolor="#39e5814c"] ;
277 -> 283 ;
284 [label=<Bank Count &le; -21635.0<br/>gini = 0.346<br/>samples = 9<br/>value = [2, 7, 0]<br/>class = Banker>, fillcolor="#39e581b6"] ;
283 -> 284 ;
285 [label=<Tie Count &le; -125123.5<br/>gini = 0.48<br/>samples = 5<br/>value = [2, 3, 0]<br/>class = Banker>, fillcolor="#39e58155"] ;
284 -> 285 ;
286 [label=<gini = 0.0<br/>samples = 2<br/>value = [0, 2, 0]<br/>class = Banker>, fillcolor="#39e581ff"] ;
285 -> 286 ;
287 [label=<Player Count &le; 23810.5<br/>gini = 0.444<br/>samples = 3<br/>value = [2, 1, 0]<br/>class = Player>, fillcolor="#e581397f"] ;
285 -> 287 ;
288 [label=<gini = 0.0<br/>samples = 2<br/>value = [2, 0, 0]<br/>class = Player>, fillcolor="#e58139ff"] ;
287 -> 288 ;
289 [label=<gini = 0.0<br/>samples = 1<br/>value = [0, 1, 0]<br/>class = Banker>, fillcolor="#39e581ff"] ;
287 -> 289 ;
290 [label=<gini = 0.0<br/>samples = 4<br/>value = [0, 4, 0]<br/>class = Banker>, fillcolor="#39e581ff"] ;
284 -> 290 ;
291 [label=<Bank Count &le; -18949.0<br/>gini = 0.571<br/>samples = 7<br/>value = [4, 2, 1]<br/>class = Player>, fillcolor="#e5813966"] ;
283 -> 291 ;
292 [label=<gini = 0.0<br/>samples = 1<br/>value = [0, 0, 1]<br/>class = Tie>, fillcolor="#8139e5ff"] ;
291 -> 292 ;
293 [label=<Tie Count &le; 70679.5<br/>gini = 0.444<br/>samples = 6<br/>value = [4, 2, 0]<br/>class = Player>, fillcolor="#e581397f"] ;
291 -> 293 ;
294 [label=<Bank Count &le; -17337.5<br/>gini = 0.32<br/>samples = 5<br/>value = [4, 1, 0]<br/>class = Player>, fillcolor="#e58139bf"] ;
293 -> 294 ;
295 [label=<gini = 0.0<br/>samples = 4<br/>value = [4, 0, 0]<br/>class = Player>, fillcolor="#e58139ff"] ;
294 -> 295 ;
296 [label=<gini = 0.0<br/>samples = 1<br/>value = [0, 1, 0]<br/>class = Banker>, fillcolor="#39e581ff"] ;
294 -> 296 ;
297 [label=<gini = 0.0<br/>samples = 1<br/>value = [0, 1, 0]<br/>class = Banker>, fillcolor="#39e581ff"] ;
293 -> 297 ;
298 [label=<Tie Count &le; -136135.5<br/>gini = 0.375<br/>samples = 4<br/>value = [3, 1, 0]<br/>class = Player>, fillcolor="#e58139aa"] ;
270 -> 298 ;
299 [label=<gini = 0.0<br/>samples = 2<br/>value = [2, 0, 0]<br/>class = Player>, fillcolor="#e58139ff"] ;
298 -> 299 ;
300 [label=<Player Count &le; 22788.0<br/>gini = 0.5<br/>samples = 2<br/>value = [1, 1, 0]<br/>class = Player>, fillcolor="#e5813900"] ;
298 -> 300 ;
301 [label=<gini = 0.0<br/>samples = 1<br/>value = [1, 0, 0]<br/>class = Player>, fillcolor="#e58139ff"] ;
300 -> 301 ;
302 [label=<gini = 0.0<br/>samples = 1<br/>value = [0, 1, 0]<br/>class = Banker>, fillcolor="#39e581ff"] ;
300 -> 302 ;
303 [label=<Tie Count &le; -16287.5<br/>gini = 0.375<br/>samples = 4<br/>value = [3, 1, 0]<br/>class = Player>, fillcolor="#e58139aa"] ;
269 -> 303 ;
304 [label=<gini = 0.0<br/>samples = 1<br/>value = [0, 1, 0]<br/>class = Banker>, fillcolor="#39e581ff"] ;
303 -> 304 ;
305 [label=<gini = 0.0<br/>samples = 3<br/>value = [3, 0, 0]<br/>class = Player>, fillcolor="#e58139ff"] ;
303 -> 305 ;
306 [label=<gini = 0.0<br/>samples = 3<br/>value = [0, 3, 0]<br/>class = Banker>, fillcolor="#39e581ff"] ;
268 -> 306 ;
307 [label=<gini = 0.0<br/>samples = 3<br/>value = [3, 0, 0]<br/>class = Player>, fillcolor="#e58139ff"] ;
267 -> 307 ;
308 [label=<Player Count &le; 21886.5<br/>gini = 0.406<br/>samples = 8<br/>value = [1, 6, 1]<br/>class = Banker>, fillcolor="#39e581b6"] ;
266 -> 308 ;
309 [label=<Regular Count &le; 6.5<br/>gini = 0.245<br/>samples = 7<br/>value = [0, 6, 1]<br/>class = Banker>, fillcolor="#39e581d4"] ;
308 -> 309 ;
310 [label=<gini = 0.0<br/>samples = 5<br/>value = [0, 5, 0]<br/>class = Banker>, fillcolor="#39e581ff"] ;
309 -> 310 ;
311 [label=<Bank Count &le; -20691.0<br/>gini = 0.5<br/>samples = 2<br/>value = [0, 1, 1]<br/>class = Banker>, fillcolor="#39e58100"] ;
309 -> 311 ;
312 [label=<gini = 0.0<br/>samples = 1<br/>value = [0, 0, 1]<br/>class = Tie>, fillcolor="#8139e5ff"] ;
311 -> 312 ;
313 [label=<gini = 0.0<br/>samples = 1<br/>value = [0, 1, 0]<br/>class = Banker>, fillcolor="#39e581ff"] ;
311 -> 313 ;
314 [label=<gini = 0.0<br/>samples = 1<br/>value = [1, 0, 0]<br/>class = Player>, fillcolor="#e58139ff"] ;
308 -> 314 ;
315 [label=<gini = 0.0<br/>samples = 4<br/>value = [0, 4, 0]<br/>class = Banker>, fillcolor="#39e581ff"] ;
265 -> 315 ;
316 [label=<gini = 0.0<br/>samples = 5<br/>value = [0, 5, 0]<br/>class = Banker>, fillcolor="#39e581ff"] ;
264 -> 316 ;
317 [label=<gini = 0.0<br/>samples = 7<br/>value = [0, 7, 0]<br/>class = Banker>, fillcolor="#39e581ff"] ;
257 -> 317 ;
318 [label=<Player Count &le; 15865.5<br/>gini = 0.607<br/>samples = 405<br/>value = [186, 164, 55]<br/>class = Player>, fillcolor="#e5813917"] ;
256 -> 318 ;
319 [label=<Bank Count &le; -7832.5<br/>gini = 0.609<br/>samples = 393<br/>value = [176, 163, 54]<br/>class = Player>, fillcolor="#e581390e"] ;
318 -> 319 ;
320 [label=<Bank Count &le; -8286.0<br/>gini = 0.61<br/>samples = 388<br/>value = [171, 163, 54]<br/>class = Player>, fillcolor="#e5813909"] ;
319 -> 320 ;
321 [label=<Player Count &le; 8737.5<br/>gini = 0.595<br/>samples = 351<br/>value = [163, 147, 41]<br/>class = Player>, fillcolor="#e5813914"] ;
320 -> 321 ;
322 [label=<Bank Count &le; -8392.5<br/>gini = 0.291<br/>samples = 17<br/>value = [14, 3, 0]<br/>class = Player>, fillcolor="#e58139c8"] ;
321 -> 322 ;
323 [label=<gini = 0.0<br/>samples = 11<br/>value = [11, 0, 0]<br/>class = Player>, fillcolor="#e58139ff"] ;
322 -> 323 ;
324 [label=<Player Count &le; 8601.0<br/>gini = 0.5<br/>samples = 6<br/>value = [3, 3, 0]<br/>class = Player>, fillcolor="#e5813900"] ;
322 -> 324 ;
325 [label=<Regular Count &le; 2.0<br/>gini = 0.375<br/>samples = 4<br/>value = [3, 1, 0]<br/>class = Player>, fillcolor="#e58139aa"] ;
324 -> 325 ;
326 [label=<gini = 0.0<br/>samples = 3<br/>value = [3, 0, 0]<br/>class = Player>, fillcolor="#e58139ff"] ;
325 -> 326 ;
327 [label=<gini = 0.0<br/>samples = 1<br/>value = [0, 1, 0]<br/>class = Banker>, fillcolor="#39e581ff"] ;
325 -> 327 ;
328 [label=<gini = 0.0<br/>samples = 2<br/>value = [0, 2, 0]<br/>class = Banker>, fillcolor="#39e581ff"] ;
324 -> 328 ;
329 [label=<Player Count &le; 8865.5<br/>gini = 0.6<br/>samples = 334<br/>value = [149, 144, 41]<br/>class = Player>, fillcolor="#e5813907"] ;
321 -> 329 ;
330 [label=<Tie Count &le; 13255.0<br/>gini = 0.153<br/>samples = 12<br/>value = [1, 11, 0]<br/>class = Banker>, fillcolor="#39e581e8"] ;
329 -> 330 ;
331 [label=<gini = 0.0<br/>samples = 8<br/>value = [0, 8, 0]<br/>class = Banker>, fillcolor="#39e581ff"] ;
330 -> 331 ;
332 [label=<Tie Count &le; 49956.0<br/>gini = 0.375<br/>samples = 4<br/>value = [1, 3, 0]<br/>class = Banker>, fillcolor="#39e581aa"] ;
330 -> 332 ;
333 [label=<gini = 0.0<br/>samples = 1<br/>value = [1, 0, 0]<br/>class = Player>, fillcolor="#e58139ff"] ;
332 -> 333 ;
334 [label=<gini = 0.0<br/>samples = 3<br/>value = [0, 3, 0]<br/>class = Banker>, fillcolor="#39e581ff"] ;
332 -> 334 ;
335 [label=<Tie Count &le; 82119.5<br/>gini = 0.602<br/>samples = 322<br/>value = [148, 133, 41]<br/>class = Player>, fillcolor="#e5813914"] ;
329 -> 335 ;
336 [label=<Regular Count &le; -22.5<br/>gini = 0.598<br/>samples = 305<br/>value = [145, 122, 38]<br/>class = Player>, fillcolor="#e5813920"] ;
335 -> 336 ;
337 [label=<Regular Count &le; -23.5<br/>gini = 0.375<br/>samples = 4<br/>value = [0, 1, 3]<br/>class = Tie>, fillcolor="#8139e5aa"] ;
336 -> 337 ;
338 [label=<gini = 0.0<br/>samples = 2<br/>value = [0, 0, 2]<br/>class = Tie>, fillcolor="#8139e5ff"] ;
337 -> 338 ;
339 [label=<Player Count &le; 14690.0<br/>gini = 0.5<br/>samples = 2<br/>value = [0, 1, 1]<br/>class = Banker>, fillcolor="#39e58100"] ;
337 -> 339 ;
340 [label=<gini = 0.0<br/>samples = 1<br/>value = [0, 1, 0]<br/>class = Banker>, fillcolor="#39e581ff"] ;
339 -> 340 ;
341 [label=<gini = 0.0<br/>samples = 1<br/>value = [0, 0, 1]<br/>class = Tie>, fillcolor="#8139e5ff"] ;
339 -> 341 ;
342 [label=<Player Count &le; 10668.0<br/>gini = 0.593<br/>samples = 301<br/>value = [145, 121, 35]<br/>class = Player>, fillcolor="#e5813922"] ;
336 -> 342 ;
343 [label=<Player Count &le; 10446.5<br/>gini = 0.592<br/>samples = 133<br/>value = [55, 63, 15]<br/>class = Banker>, fillcolor="#39e5811a"] ;
342 -> 343 ;
344 [label=<Player Count &le; 10293.5<br/>gini = 0.602<br/>samples = 119<br/>value = [53, 51, 15]<br/>class = Player>, fillcolor="#e5813908"] ;
343 -> 344 ;
345 [label=<Player Count &le; 9893.0<br/>gini = 0.596<br/>samples = 109<br/>value = [45, 51, 13]<br/>class = Banker>, fillcolor="#39e58118"] ;
344 -> 345 ;
346 [label=<Regular Count &le; -1.5<br/>gini = 0.569<br/>samples = 83<br/>value = [42, 34, 7]<br/>class = Player>, fillcolor="#e581392a"] ;
345 -> 346 ;
347 [label=<Tie Count &le; 56709.0<br/>gini = 0.541<br/>samples = 54<br/>value = [32, 17, 5]<br/>class = Player>, fillcolor="#e5813967"] ;
346 -> 347 ;
348 [label=<Bank Count &le; -9418.0<br/>gini = 0.575<br/>samples = 47<br/>value = [25, 17, 5]<br/>class = Player>, fillcolor="#e5813944"] ;
347 -> 348 ;
349 [label=<gini = 0.0<br/>samples = 7<br/>value = [7, 0, 0]<br/>class = Player>, fillcolor="#e58139ff"] ;
348 -> 349 ;
350 [label=<Bank Count &le; -9282.0<br/>gini = 0.601<br/>samples = 40<br/>value = [18, 17, 5]<br/>class = Player>, fillcolor="#e581390b"] ;
348 -> 350 ;
351 [label=<gini = 0.0<br/>samples = 4<br/>value = [0, 4, 0]<br/>class = Banker>, fillcolor="#39e581ff"] ;
350 -> 351 ;
352 [label=<Regular Count &le; -7.0<br/>gini = 0.6<br/>samples = 36<br/>value = [18, 13, 5]<br/>class = Player>, fillcolor="#e5813937"] ;
350 -> 352 ;
353 [label=<Player Count &le; 9002.0<br/>gini = 0.565<br/>samples = 20<br/>value = [7, 11, 2]<br/>class = Banker>, fillcolor="#39e5814e"] ;
352 -> 353 ;
354 [label=<Player Count &le; 8997.5<br/>gini = 0.5<br/>samples = 4<br/>value = [2, 0, 2]<br/>class = Player>, fillcolor="#e5813900"] ;
353 -> 354 ;
355 [label=<gini = 0.0<br/>samples = 2<br/>value = [2, 0, 0]<br/>class = Player>, fillcolor="#e58139ff"] ;
354 -> 355 ;
356 [label=<gini = 0.0<br/>samples = 2<br/>value = [0, 0, 2]<br/>class = Tie>, fillcolor="#8139e5ff"] ;
354 -> 356 ;
357 [label=<Tie Count &le; 46892.5<br/>gini = 0.43<br/>samples = 16<br/>value = [5, 11, 0]<br/>class = Banker>, fillcolor="#39e5818b"] ;
353 -> 357 ;
358 [label=<Tie Count &le; 43562.0<br/>gini = 0.486<br/>samples = 12<br/>value = [5, 7, 0]<br/>class = Banker>, fillcolor="#39e58149"] ;
357 -> 358 ;
359 [label=<Tie Count &le; 33716.5<br/>gini = 0.42<br/>samples = 10<br/>value = [3, 7, 0]<br/>class = Banker>, fillcolor="#39e58192"] ;
358 -> 359 ;
360 [label=<Bank Count &le; -8861.0<br/>gini = 0.5<br/>samples = 6<br/>value = [3, 3, 0]<br/>class = Player>, fillcolor="#e5813900"] ;
359 -> 360 ;
361 [label=<Regular Count &le; -13.5<br/>gini = 0.375<br/>samples = 4<br/>value = [1, 3, 0]<br/>class = Banker>, fillcolor="#39e581aa"] ;
360 -> 361 ;
362 [label=<gini = 0.0<br/>samples = 1<br/>value = [1, 0, 0]<br/>class = Player>, fillcolor="#e58139ff"] ;
361 -> 362 ;
363 [label=<gini = 0.0<br/>samples = 3<br/>value = [0, 3, 0]<br/>class = Banker>, fillcolor="#39e581ff"] ;
361 -> 363 ;
364 [label=<gini = 0.0<br/>samples = 2<br/>value = [2, 0, 0]<br/>class = Player>, fillcolor="#e58139ff"] ;
360 -> 364 ;
365 [label=<gini = 0.0<br/>samples = 4<br/>value = [0, 4, 0]<br/>class = Banker>, fillcolor="#39e581ff"] ;
359 -> 365 ;
366 [label=<gini = 0.0<br/>samples = 2<br/>value = [2, 0, 0]<br/>class = Player>, fillcolor="#e58139ff"] ;
358 -> 366 ;
367 [label=<gini = 0.0<br/>samples = 4<br/>value = [0, 4, 0]<br/>class = Banker>, fillcolor="#39e581ff"] ;
357 -> 367 ;
368 [label=<Tie Count &le; -25300.0<br/>gini = 0.477<br/>samples = 16<br/>value = [11, 2, 3]<br/>class = Player>, fillcolor="#e581399d"] ;
352 -> 368 ;
369 [label=<gini = 0.0<br/>samples = 2<br/>value = [0, 0, 2]<br/>class = Tie>, fillcolor="#8139e5ff"] ;
368 -> 369 ;
370 [label=<Player Count &le; 9255.0<br/>gini = 0.357<br/>samples = 14<br/>value = [11, 2, 1]<br/>class = Player>, fillcolor="#e58139bf"] ;
368 -> 370 ;
371 [label=<gini = 0.0<br/>samples = 6<br/>value = [6, 0, 0]<br/>class = Player>, fillcolor="#e58139ff"] ;
370 -> 371 ;
372 [label=<Regular Count &le; -3.5<br/>gini = 0.531<br/>samples = 8<br/>value = [5, 2, 1]<br/>class = Player>, fillcolor="#e5813980"] ;
370 -> 372 ;
373 [label=<gini = 0.0<br/>samples = 5<br/>value = [5, 0, 0]<br/>class = Player>, fillcolor="#e58139ff"] ;
372 -> 373 ;
374 [label=<Tie Count &le; 25164.0<br/>gini = 0.444<br/>samples = 3<br/>value = [0, 2, 1]<br/>class = Banker>, fillcolor="#39e5817f"] ;
372 -> 374 ;
375 [label=<gini = 0.0<br/>samples = 2<br/>value = [0, 2, 0]<br/>class = Banker>, fillcolor="#39e581ff"] ;
374 -> 375 ;
376 [label=<gini = 0.0<br/>samples = 1<br/>value = [0, 0, 1]<br/>class = Tie>, fillcolor="#8139e5ff"] ;
374 -> 376 ;
377 [label=<gini = 0.0<br/>samples = 7<br/>value = [7, 0, 0]<br/>class = Player>, fillcolor="#e58139ff"] ;
347 -> 377 ;
378 [label=<Regular Count &le; 3.5<br/>gini = 0.533<br/>samples = 29<br/>value = [10, 17, 2]<br/>class = Banker>, fillcolor="#39e5815e"] ;
346 -> 378 ;
379 [label=<Player Count &le; 9113.5<br/>gini = 0.363<br/>samples = 21<br/>value = [5, 16, 0]<br/>class = Banker>, fillcolor="#39e581af"] ;
378 -> 379 ;
380 [label=<gini = 0.0<br/>samples = 8<br/>value = [0, 8, 0]<br/>class = Banker>, fillcolor="#39e581ff"] ;
379 -> 380 ;
381 [label=<Bank Count &le; -9397.0<br/>gini = 0.473<br/>samples = 13<br/>value = [5, 8, 0]<br/>class = Banker>, fillcolor="#39e58160"] ;
379 -> 381 ;
382 [label=<gini = 0.0<br/>samples = 5<br/>value = [0, 5, 0]<br/>class = Banker>, fillcolor="#39e581ff"] ;
381 -> 382 ;
383 [label=<Bank Count &le; -8904.5<br/>gini = 0.469<br/>samples = 8<br/>value = [5, 3, 0]<br/>class = Player>, fillcolor="#e5813966"] ;
381 -> 383 ;
384 [label=<Tie Count &le; -25955.0<br/>gini = 0.278<br/>samples = 6<br/>value = [5, 1, 0]<br/>class = Player>, fillcolor="#e58139cc"] ;
383 -> 384 ;
385 [label=<Player Count &le; 9185.5<br/>gini = 0.5<br/>samples = 2<br/>value = [1, 1, 0]<br/>class = Player>, fillcolor="#e5813900"] ;
384 -> 385 ;
386 [label=<gini = 0.0<br/>samples = 1<br/>value = [0, 1, 0]<br/>class = Banker>, fillcolor="#39e581ff"] ;
385 -> 386 ;
387 [label=<gini = 0.0<br/>samples = 1<br/>value = [1, 0, 0]<br/>class = Player>, fillcolor="#e58139ff"] ;
385 -> 387 ;
388 [label=<gini = 0.0<br/>samples = 4<br/>value = [4, 0, 0]<br/>class = Player>, fillcolor="#e58139ff"] ;
384 -> 388 ;
389 [label=<gini = 0.0<br/>samples = 2<br/>value = [0, 2, 0]<br/>class = Banker>, fillcolor="#39e581ff"] ;
383 -> 389 ;
390 [label=<Tie Count &le; -28875.0<br/>gini = 0.531<br/>samples = 8<br/>value = [5, 1, 2]<br/>class = Player>, fillcolor="#e5813980"] ;
378 -> 390 ;
391 [label=<Bank Count &le; -9723.0<br/>gini = 0.278<br/>samples = 6<br/>value = [5, 1, 0]<br/>class = Player>, fillcolor="#e58139cc"] ;
390 -> 391 ;
392 [label=<gini = 0.0<br/>samples = 1<br/>value = [0, 1, 0]<br/>class = Banker>, fillcolor="#39e581ff"] ;
391 -> 392 ;
393 [label=<gini = 0.0<br/>samples = 5<br/>value = [5, 0, 0]<br/>class = Player>, fillcolor="#e58139ff"] ;
391 -> 393 ;
394 [label=<gini = 0.0<br/>samples = 2<br/>value = [0, 0, 2]<br/>class = Tie>, fillcolor="#8139e5ff"] ;
390 -> 394 ;
395 [label=<Bank Count &le; -10066.5<br/>gini = 0.506<br/>samples = 26<br/>value = [3, 17, 6]<br/>class = Banker>, fillcolor="#39e5818c"] ;
345 -> 395 ;
396 [label=<gini = 0.0<br/>samples = 2<br/>value = [0, 0, 2]<br/>class = Tie>, fillcolor="#8139e5ff"] ;
395 -> 396 ;
397 [label=<Bank Count &le; -9825.0<br/>gini = 0.455<br/>samples = 24<br/>value = [3, 17, 4]<br/>class = Banker>, fillcolor="#39e581a6"] ;
395 -> 397 ;
398 [label=<gini = 0.0<br/>samples = 9<br/>value = [0, 9, 0]<br/>class = Banker>, fillcolor="#39e581ff"] ;
397 -> 398 ;
399 [label=<Tie Count &le; 23029.0<br/>gini = 0.604<br/>samples = 15<br/>value = [3, 8, 4]<br/>class = Banker>, fillcolor="#39e5815d"] ;
397 -> 399 ;
400 [label=<Player Count &le; 10061.0<br/>gini = 0.48<br/>samples = 5<br/>value = [2, 0, 3]<br/>class = Tie>, fillcolor="#8139e555"] ;
399 -> 400 ;
401 [label=<gini = 0.0<br/>samples = 3<br/>value = [0, 0, 3]<br/>class = Tie>, fillcolor="#8139e5ff"] ;
400 -> 401 ;
402 [label=<gini = 0.0<br/>samples = 2<br/>value = [2, 0, 0]<br/>class = Player>, fillcolor="#e58139ff"] ;
400 -> 402 ;
403 [label=<Tie Count &le; 65776.5<br/>gini = 0.34<br/>samples = 10<br/>value = [1, 8, 1]<br/>class = Banker>, fillcolor="#39e581c6"] ;
399 -> 403 ;
404 [label=<Regular Count &le; -2.5<br/>gini = 0.198<br/>samples = 9<br/>value = [1, 8, 0]<br/>class = Banker>, fillcolor="#39e581df"] ;
403 -> 404 ;
405 [label=<gini = 0.0<br/>samples = 7<br/>value = [0, 7, 0]<br/>class = Banker>, fillcolor="#39e581ff"] ;
404 -> 405 ;
406 [label=<Player Count &le; 10037.0<br/>gini = 0.5<br/>samples = 2<br/>value = [1, 1, 0]<br/>class = Player>, fillcolor="#e5813900"] ;
404 -> 406 ;
407 [label=<gini = 0.0<br/>samples = 1<br/>value = [1, 0, 0]<br/>class = Player>, fillcolor="#e58139ff"] ;
406 -> 407 ;
408 [label=<gini = 0.0<br/>samples = 1<br/>value = [0, 1, 0]<br/>class = Banker>, fillcolor="#39e581ff"] ;
406 -> 408 ;
409 [label=<gini = 0.0<br/>samples = 1<br/>value = [0, 0, 1]<br/>class = Tie>, fillcolor="#8139e5ff"] ;
403 -> 409 ;
410 [label=<Tie Count &le; 48160.5<br/>gini = 0.32<br/>samples = 10<br/>value = [8, 0, 2]<br/>class = Player>, fillcolor="#e58139bf"] ;
344 -> 410 ;
411 [label=<Regular Count &le; 0.5<br/>gini = 0.198<br/>samples = 9<br/>value = [8, 0, 1]<br/>class = Player>, fillcolor="#e58139df"] ;
410 -> 411 ;
412 [label=<gini = 0.0<br/>samples = 8<br/>value = [8, 0, 0]<br/>class = Player>, fillcolor="#e58139ff"] ;
411 -> 412 ;
413 [label=<gini = 0.0<br/>samples = 1<br/>value = [0, 0, 1]<br/>class = Tie>, fillcolor="#8139e5ff"] ;
411 -> 413 ;
414 [label=<gini = 0.0<br/>samples = 1<br/>value = [0, 0, 1]<br/>class = Tie>, fillcolor="#8139e5ff"] ;
410 -> 414 ;
415 [label=<Tie Count &le; 63896.0<br/>gini = 0.245<br/>samples = 14<br/>value = [2, 12, 0]<br/>class = Banker>, fillcolor="#39e581d4"] ;
343 -> 415 ;
416 [label=<gini = 0.0<br/>samples = 12<br/>value = [0, 12, 0]<br/>class = Banker>, fillcolor="#39e581ff"] ;
415 -> 416 ;
417 [label=<gini = 0.0<br/>samples = 2<br/>value = [2, 0, 0]<br/>class = Player>, fillcolor="#e58139ff"] ;
415 -> 417 ;
418 [label=<Player Count &le; 10906.0<br/>gini = 0.58<br/>samples = 168<br/>value = [90, 58, 20]<br/>class = Player>, fillcolor="#e581394a"] ;
342 -> 418 ;
419 [label=<Bank Count &le; -10279.5<br/>gini = 0.142<br/>samples = 13<br/>value = [12, 1, 0]<br/>class = Player>, fillcolor="#e58139ea"] ;
418 -> 419 ;
420 [label=<gini = 0.0<br/>samples = 12<br/>value = [12, 0, 0]<br/>class = Player>, fillcolor="#e58139ff"] ;
419 -> 420 ;
421 [label=<gini = 0.0<br/>samples = 1<br/>value = [0, 1, 0]<br/>class = Banker>, fillcolor="#39e581ff"] ;
419 -> 421 ;
422 [label=<Player Count &le; 10971.5<br/>gini = 0.595<br/>samples = 155<br/>value = [78, 57, 20]<br/>class = Player>, fillcolor="#e5813937"] ;
418 -> 422 ;
423 [label=<gini = 0.0<br/>samples = 2<br/>value = [0, 0, 2]<br/>class = Tie>, fillcolor="#8139e5ff"] ;
422 -> 423 ;
424 [label=<Bank Count &le; -10806.5<br/>gini = 0.587<br/>samples = 153<br/>value = [78, 57, 18]<br/>class = Player>, fillcolor="#e5813938"] ;
422 -> 424 ;
425 [label=<Player Count &le; 11173.0<br/>gini = 0.586<br/>samples = 150<br/>value = [78, 54, 18]<br/>class = Player>, fillcolor="#e5813940"] ;
424 -> 425 ;
426 [label=<gini = 0.0<br/>samples = 5<br/>value = [5, 0, 0]<br/>class = Player>, fillcolor="#e58139ff"] ;
425 -> 426 ;
427 [label=<Player Count &le; 11300.5<br/>gini = 0.592<br/>samples = 145<br/>value = [73, 54, 18]<br/>class = Player>, fillcolor="#e5813935"] ;
425 -> 427 ;
428 [label=<gini = 0.0<br/>samples = 3<br/>value = [0, 3, 0]<br/>class = Banker>, fillcolor="#39e581ff"] ;
427 -> 428 ;
429 [label=<Player Count &le; 11465.5<br/>gini = 0.591<br/>samples = 142<br/>value = [73, 51, 18]<br/>class = Player>, fillcolor="#e581393e"] ;
427 -> 429 ;
430 [label=<gini = 0.0<br/>samples = 6<br/>value = [6, 0, 0]<br/>class = Player>, fillcolor="#e58139ff"] ;
429 -> 430 ;
431 [label=<Bank Count &le; -11891.0<br/>gini = 0.599<br/>samples = 136<br/>value = [67, 51, 18]<br/>class = Player>, fillcolor="#e5813930"] ;
429 -> 431 ;
432 [label=<Bank Count &le; -12348.5<br/>gini = 0.585<br/>samples = 109<br/>value = [59, 35, 15]<br/>class = Player>, fillcolor="#e5813953"] ;
431 -> 432 ;
433 [label=<Regular Count &le; -3.5<br/>gini = 0.596<br/>samples = 87<br/>value = [43, 33, 11]<br/>class = Player>, fillcolor="#e581392f"] ;
432 -> 433 ;
434 [label=<Tie Count &le; -79027.0<br/>gini = 0.565<br/>samples = 48<br/>value = [28, 13, 7]<br/>class = Player>, fillcolor="#e581396d"] ;
433 -> 434 ;
435 [label=<Regular Count &le; -8.5<br/>gini = 0.337<br/>samples = 14<br/>value = [11, 3, 0]<br/>class = Player>, fillcolor="#e58139b9"] ;
434 -> 435 ;
436 [label=<Player Count &le; 15309.5<br/>gini = 0.48<br/>samples = 5<br/>value = [2, 3, 0]<br/>class = Banker>, fillcolor="#39e58155"] ;
435 -> 436 ;
437 [label=<gini = 0.0<br/>samples = 2<br/>value = [0, 2, 0]<br/>class = Banker>, fillcolor="#39e581ff"] ;
436 -> 437 ;
438 [label=<Player Count &le; 15811.5<br/>gini = 0.444<br/>samples = 3<br/>value = [2, 1, 0]<br/>class = Player>, fillcolor="#e581397f"] ;
436 -> 438 ;
439 [label=<gini = 0.0<br/>samples = 2<br/>value = [2, 0, 0]<br/>class = Player>, fillcolor="#e58139ff"] ;
438 -> 439 ;
440 [label=<gini = 0.0<br/>samples = 1<br/>value = [0, 1, 0]<br/>class = Banker>, fillcolor="#39e581ff"] ;
438 -> 440 ;
441 [label=<gini = 0.0<br/>samples = 9<br/>value = [9, 0, 0]<br/>class = Player>, fillcolor="#e58139ff"] ;
435 -> 441 ;
442 [label=<Bank Count &le; -15284.5<br/>gini = 0.621<br/>samples = 34<br/>value = [17, 10, 7]<br/>class = Player>, fillcolor="#e581394a"] ;
434 -> 442 ;
443 [label=<gini = 0.0<br/>samples = 3<br/>value = [0, 0, 3]<br/>class = Tie>, fillcolor="#8139e5ff"] ;
442 -> 443 ;
444 [label=<Regular Count &le; -6.5<br/>gini = 0.579<br/>samples = 31<br/>value = [17, 10, 4]<br/>class = Player>, fillcolor="#e5813955"] ;
442 -> 444 ;
445 [label=<Tie Count &le; 74725.0<br/>gini = 0.41<br/>samples = 19<br/>value = [14, 4, 1]<br/>class = Player>, fillcolor="#e58139aa"] ;
444 -> 445 ;
446 [label=<Tie Count &le; -46518.0<br/>gini = 0.32<br/>samples = 16<br/>value = [13, 2, 1]<br/>class = Player>, fillcolor="#e58139c8"] ;
445 -> 446 ;
447 [label=<Player Count &le; 13505.0<br/>gini = 0.64<br/>samples = 5<br/>value = [2, 2, 1]<br/>class = Player>, fillcolor="#e5813900"] ;
446 -> 447 ;
448 [label=<gini = 0.0<br/>samples = 2<br/>value = [2, 0, 0]<br/>class = Player>, fillcolor="#e58139ff"] ;
447 -> 448 ;
449 [label=<Bank Count &le; -14137.5<br/>gini = 0.444<br/>samples = 3<br/>value = [0, 2, 1]<br/>class = Banker>, fillcolor="#39e5817f"] ;
447 -> 449 ;
450 [label=<gini = 0.0<br/>samples = 1<br/>value = [0, 1, 0]<br/>class = Banker>, fillcolor="#39e581ff"] ;
449 -> 450 ;
451 [label=<Bank Count &le; -13787.5<br/>gini = 0.5<br/>samples = 2<br/>value = [0, 1, 1]<br/>class = Banker>, fillcolor="#39e58100"] ;
449 -> 451 ;
452 [label=<gini = 0.0<br/>samples = 1<br/>value = [0, 0, 1]<br/>class = Tie>, fillcolor="#8139e5ff"] ;
451 -> 452 ;
453 [label=<gini = 0.0<br/>samples = 1<br/>value = [0, 1, 0]<br/>class = Banker>, fillcolor="#39e581ff"] ;
451 -> 453 ;
454 [label=<gini = 0.0<br/>samples = 11<br/>value = [11, 0, 0]<br/>class = Player>, fillcolor="#e58139ff"] ;
446 -> 454 ;
455 [label=<Regular Count &le; -19.5<br/>gini = 0.444<br/>samples = 3<br/>value = [1, 2, 0]<br/>class = Banker>, fillcolor="#39e5817f"] ;
445 -> 455 ;
456 [label=<gini = 0.0<br/>samples = 1<br/>value = [1, 0, 0]<br/>class = Player>, fillcolor="#e58139ff"] ;
455 -> 456 ;
457 [label=<gini = 0.0<br/>samples = 2<br/>value = [0, 2, 0]<br/>class = Banker>, fillcolor="#39e581ff"] ;
455 -> 457 ;
458 [label=<Tie Count &le; 53154.0<br/>gini = 0.625<br/>samples = 12<br/>value = [3, 6, 3]<br/>class = Banker>, fillcolor="#39e58155"] ;
444 -> 458 ;
459 [label=<Tie Count &le; 39935.0<br/>gini = 0.469<br/>samples = 8<br/>value = [3, 5, 0]<br/>class = Banker>, fillcolor="#39e58166"] ;
458 -> 459 ;
460 [label=<Tie Count &le; -407.5<br/>gini = 0.278<br/>samples = 6<br/>value = [1, 5, 0]<br/>class = Banker>, fillcolor="#39e581cc"] ;
459 -> 460 ;
461 [label=<gini = 0.0<br/>samples = 1<br/>value = [1, 0, 0]<br/>class = Player>, fillcolor="#e58139ff"] ;
460 -> 461 ;
462 [label=<gini = 0.0<br/>samples = 5<br/>value = [0, 5, 0]<br/>class = Banker>, fillcolor="#39e581ff"] ;
460 -> 462 ;
463 [label=<gini = 0.0<br/>samples = 2<br/>value = [2, 0, 0]<br/>class = Player>, fillcolor="#e58139ff"] ;
459 -> 463 ;
464 [label=<Player Count &le; 14605.0<br/>gini = 0.375<br/>samples = 4<br/>value = [0, 1, 3]<br/>class = Tie>, fillcolor="#8139e5aa"] ;
458 -> 464 ;
465 [label=<gini = 0.0<br/>samples = 3<br/>value = [0, 0, 3]<br/>class = Tie>, fillcolor="#8139e5ff"] ;
464 -> 465 ;
466 [label=<gini = 0.0<br/>samples = 1<br/>value = [0, 1, 0]<br/>class = Banker>, fillcolor="#39e581ff"] ;
464 -> 466 ;
467 [label=<Player Count &le; 15623.5<br/>gini = 0.579<br/>samples = 39<br/>value = [15, 20, 4]<br/>class = Banker>, fillcolor="#39e58135"] ;
433 -> 467 ;
468 [label=<Regular Count &le; -2.5<br/>gini = 0.594<br/>samples = 35<br/>value = [15, 16, 4]<br/>class = Banker>, fillcolor="#39e5810d"] ;
467 -> 468 ;
469 [label=<Bank Count &le; -13482.0<br/>gini = 0.444<br/>samples = 6<br/>value = [0, 4, 2]<br/>class = Banker>, fillcolor="#39e5817f"] ;
468 -> 469 ;
470 [label=<gini = 0.0<br/>samples = 4<br/>value = [0, 4, 0]<br/>class = Banker>, fillcolor="#39e581ff"] ;
469 -> 470 ;
471 [label=<gini = 0.0<br/>samples = 2<br/>value = [0, 0, 2]<br/>class = Tie>, fillcolor="#8139e5ff"] ;
469 -> 471 ;
472 [label=<Player Count &le; 15493.5<br/>gini = 0.556<br/>samples = 29<br/>value = [15, 12, 2]<br/>class = Player>, fillcolor="#e581392d"] ;
468 -> 472 ;
473 [label=<Player Count &le; 13024.0<br/>gini = 0.497<br/>samples = 26<br/>value = [14, 12, 0]<br/>class = Player>, fillcolor="#e5813924"] ;
472 -> 473 ;
474 [label=<Tie Count &le; -60583.5<br/>gini = 0.32<br/>samples = 5<br/>value = [1, 4, 0]<br/>class = Banker>, fillcolor="#39e581bf"] ;
473 -> 474 ;
475 [label=<gini = 0.0<br/>samples = 4<br/>value = [0, 4, 0]<br/>class = Banker>, fillcolor="#39e581ff"] ;
474 -> 475 ;
476 [label=<gini = 0.0<br/>samples = 1<br/>value = [1, 0, 0]<br/>class = Player>, fillcolor="#e58139ff"] ;
474 -> 476 ;
477 [label=<Tie Count &le; -14159.0<br/>gini = 0.472<br/>samples = 21<br/>value = [13, 8, 0]<br/>class = Player>, fillcolor="#e5813962"] ;
473 -> 477 ;
478 [label=<Tie Count &le; -131223.5<br/>gini = 0.337<br/>samples = 14<br/>value = [11, 3, 0]<br/>class = Player>, fillcolor="#e58139b9"] ;
477 -> 478 ;
479 [label=<gini = 0.0<br/>samples = 1<br/>value = [0, 1, 0]<br/>class = Banker>, fillcolor="#39e581ff"] ;
478 -> 479 ;
480 [label=<Bank Count &le; -13189.0<br/>gini = 0.26<br/>samples = 13<br/>value = [11, 2, 0]<br/>class = Player>, fillcolor="#e58139d1"] ;
478 -> 480 ;
481 [label=<gini = 0.0<br/>samples = 9<br/>value = [9, 0, 0]<br/>class = Player>, fillcolor="#e58139ff"] ;
480 -> 481 ;
482 [label=<Bank Count &le; -13070.5<br/>gini = 0.5<br/>samples = 4<br/>value = [2, 2, 0]<br/>class = Player>, fillcolor="#e5813900"] ;
480 -> 482 ;
483 [label=<gini = 0.0<br/>samples = 2<br/>value = [0, 2, 0]<br/>class = Banker>, fillcolor="#39e581ff"] ;
482 -> 483 ;
484 [label=<gini = 0.0<br/>samples = 2<br/>value = [2, 0, 0]<br/>class = Player>, fillcolor="#e58139ff"] ;
482 -> 484 ;
485 [label=<Tie Count &le; 27382.0<br/>gini = 0.408<br/>samples = 7<br/>value = [2, 5, 0]<br/>class = Banker>, fillcolor="#39e58199"] ;
477 -> 485 ;
486 [label=<gini = 0.0<br/>samples = 5<br/>value = [0, 5, 0]<br/>class = Banker>, fillcolor="#39e581ff"] ;
485 -> 486 ;
487 [label=<gini = 0.0<br/>samples = 2<br/>value = [2, 0, 0]<br/>class = Player>, fillcolor="#e58139ff"] ;
485 -> 487 ;
488 [label=<Player Count &le; 15599.5<br/>gini = 0.444<br/>samples = 3<br/>value = [1, 0, 2]<br/>class = Tie>, fillcolor="#8139e57f"] ;
472 -> 488 ;
489 [label=<gini = 0.0<br/>samples = 2<br/>value = [0, 0, 2]<br/>class = Tie>, fillcolor="#8139e5ff"] ;
488 -> 489 ;
490 [label=<gini = 0.0<br/>samples = 1<br/>value = [1, 0, 0]<br/>class = Player>, fillcolor="#e58139ff"] ;
488 -> 490 ;
491 [label=<gini = 0.0<br/>samples = 4<br/>value = [0, 4, 0]<br/>class = Banker>, fillcolor="#39e581ff"] ;
467 -> 491 ;
492 [label=<Regular Count &le; -20.5<br/>gini = 0.43<br/>samples = 22<br/>value = [16, 2, 4]<br/>class = Player>, fillcolor="#e58139aa"] ;
432 -> 492 ;
493 [label=<gini = 0.0<br/>samples = 1<br/>value = [0, 1, 0]<br/>class = Banker>, fillcolor="#39e581ff"] ;
492 -> 493 ;
494 [label=<Player Count &le; 12285.5<br/>gini = 0.381<br/>samples = 21<br/>value = [16, 1, 4]<br/>class = Player>, fillcolor="#e58139b4"] ;
492 -> 494 ;
495 [label=<Player Count &le; 12201.0<br/>gini = 0.49<br/>samples = 7<br/>value = [4, 0, 3]<br/>class = Player>, fillcolor="#e5813940"] ;
494 -> 495 ;
496 [label=<gini = 0.0<br/>samples = 4<br/>value = [4, 0, 0]<br/>class = Player>, fillcolor="#e58139ff"] ;
495 -> 496 ;
497 [label=<gini = 0.0<br/>samples = 3<br/>value = [0, 0, 3]<br/>class = Tie>, fillcolor="#8139e5ff"] ;
495 -> 497 ;
498 [label=<Bank Count &le; -11948.5<br/>gini = 0.255<br/>samples = 14<br/>value = [12, 1, 1]<br/>class = Player>, fillcolor="#e58139d8"] ;
494 -> 498 ;
499 [label=<Bank Count &le; -12019.0<br/>gini = 0.142<br/>samples = 13<br/>value = [12, 1, 0]<br/>class = Player>, fillcolor="#e58139ea"] ;
498 -> 499 ;
500 [label=<gini = 0.0<br/>samples = 11<br/>value = [11, 0, 0]<br/>class = Player>, fillcolor="#e58139ff"] ;
499 -> 500 ;
501 [label=<Tie Count &le; 62018.0<br/>gini = 0.5<br/>samples = 2<br/>value = [1, 1, 0]<br/>class = Player>, fillcolor="#e5813900"] ;
499 -> 501 ;
502 [label=<gini = 0.0<br/>samples = 1<br/>value = [0, 1, 0]<br/>class = Banker>, fillcolor="#39e581ff"] ;
501 -> 502 ;
503 [label=<gini = 0.0<br/>samples = 1<br/>value = [1, 0, 0]<br/>class = Player>, fillcolor="#e58139ff"] ;
501 -> 503 ;
504 [label=<gini = 0.0<br/>samples = 1<br/>value = [0, 0, 1]<br/>class = Tie>, fillcolor="#8139e5ff"] ;
498 -> 504 ;
505 [label=<Bank Count &le; -11587.0<br/>gini = 0.549<br/>samples = 27<br/>value = [8, 16, 3]<br/>class = Banker>, fillcolor="#39e5816b"] ;
431 -> 505 ;
506 [label=<gini = 0.0<br/>samples = 12<br/>value = [0, 12, 0]<br/>class = Banker>, fillcolor="#39e581ff"] ;
505 -> 506 ;
507 [label=<Regular Count &le; 4.5<br/>gini = 0.604<br/>samples = 15<br/>value = [8, 4, 3]<br/>class = Player>, fillcolor="#e581395d"] ;
505 -> 507 ;
508 [label=<Tie Count &le; 30157.5<br/>gini = 0.521<br/>samples = 13<br/>value = [8, 4, 1]<br/>class = Player>, fillcolor="#e5813971"] ;
507 -> 508 ;
509 [label=<Player Count &le; 11490.0<br/>gini = 0.32<br/>samples = 10<br/>value = [8, 2, 0]<br/>class = Player>, fillcolor="#e58139bf"] ;
508 -> 509 ;
510 [label=<gini = 0.0<br/>samples = 2<br/>value = [0, 2, 0]<br/>class = Banker>, fillcolor="#39e581ff"] ;
509 -> 510 ;
511 [label=<gini = 0.0<br/>samples = 8<br/>value = [8, 0, 0]<br/>class = Player>, fillcolor="#e58139ff"] ;
509 -> 511 ;
512 [label=<Tie Count &le; 36649.0<br/>gini = 0.444<br/>samples = 3<br/>value = [0, 2, 1]<br/>class = Banker>, fillcolor="#39e5817f"] ;
508 -> 512 ;
513 [label=<gini = 0.0<br/>samples = 1<br/>value = [0, 0, 1]<br/>class = Tie>, fillcolor="#8139e5ff"] ;
512 -> 513 ;
514 [label=<gini = 0.0<br/>samples = 2<br/>value = [0, 2, 0]<br/>class = Banker>, fillcolor="#39e581ff"] ;
512 -> 514 ;
515 [label=<gini = 0.0<br/>samples = 2<br/>value = [0, 0, 2]<br/>class = Tie>, fillcolor="#8139e5ff"] ;
507 -> 515 ;
516 [label=<gini = 0.0<br/>samples = 3<br/>value = [0, 3, 0]<br/>class = Banker>, fillcolor="#39e581ff"] ;
424 -> 516 ;
517 [label=<Regular Count &le; -4.5<br/>gini = 0.519<br/>samples = 17<br/>value = [3, 11, 3]<br/>class = Banker>, fillcolor="#39e58192"] ;
335 -> 517 ;
518 [label=<Bank Count &le; -10467.5<br/>gini = 0.418<br/>samples = 15<br/>value = [3, 11, 1]<br/>class = Banker>, fillcolor="#39e581aa"] ;
517 -> 518 ;
519 [label=<gini = 0.0<br/>samples = 6<br/>value = [0, 6, 0]<br/>class = Banker>, fillcolor="#39e581ff"] ;
518 -> 519 ;
520 [label=<Regular Count &le; -24.0<br/>gini = 0.568<br/>samples = 9<br/>value = [3, 5, 1]<br/>class = Banker>, fillcolor="#39e58155"] ;
518 -> 520 ;
521 [label=<gini = 0.0<br/>samples = 3<br/>value = [0, 3, 0]<br/>class = Banker>, fillcolor="#39e581ff"] ;
520 -> 521 ;
522 [label=<Player Count &le; 9142.0<br/>gini = 0.611<br/>samples = 6<br/>value = [3, 2, 1]<br/>class = Player>, fillcolor="#e5813940"] ;
520 -> 522 ;
523 [label=<gini = 0.0<br/>samples = 2<br/>value = [0, 2, 0]<br/>class = Banker>, fillcolor="#39e581ff"] ;
522 -> 523 ;
524 [label=<Player Count &le; 10384.0<br/>gini = 0.375<br/>samples = 4<br/>value = [3, 0, 1]<br/>class = Player>, fillcolor="#e58139aa"] ;
522 -> 524 ;
525 [label=<gini = 0.0<br/>samples = 3<br/>value = [3, 0, 0]<br/>class = Player>, fillcolor="#e58139ff"] ;
524 -> 525 ;
526 [label=<gini = 0.0<br/>samples = 1<br/>value = [0, 0, 1]<br/>class = Tie>, fillcolor="#8139e5ff"] ;
524 -> 526 ;
527 [label=<gini = 0.0<br/>samples = 2<br/>value = [0, 0, 2]<br/>class = Tie>, fillcolor="#8139e5ff"] ;
517 -> 527 ;
528 [label=<Player Count &le; 8495.5<br/>gini = 0.643<br/>samples = 37<br/>value = [8, 16, 13]<br/>class = Banker>, fillcolor="#39e58120"] ;
320 -> 528 ;
529 [label=<Regular Count &le; 1.5<br/>gini = 0.58<br/>samples = 29<br/>value = [4, 16, 9]<br/>class = Banker>, fillcolor="#39e58159"] ;
528 -> 529 ;
530 [label=<Tie Count &le; -26940.5<br/>gini = 0.525<br/>samples = 25<br/>value = [4, 16, 5]<br/>class = Banker>, fillcolor="#39e5818c"] ;
529 -> 530 ;
531 [label=<Player Count &le; 8188.0<br/>gini = 0.375<br/>samples = 4<br/>value = [3, 1, 0]<br/>class = Player>, fillcolor="#e58139aa"] ;
530 -> 531 ;
532 [label=<gini = 0.0<br/>samples = 1<br/>value = [0, 1, 0]<br/>class = Banker>, fillcolor="#39e581ff"] ;
531 -> 532 ;
533 [label=<gini = 0.0<br/>samples = 3<br/>value = [3, 0, 0]<br/>class = Player>, fillcolor="#e58139ff"] ;
531 -> 533 ;
534 [label=<Tie Count &le; 17092.0<br/>gini = 0.431<br/>samples = 21<br/>value = [1, 15, 5]<br/>class = Banker>, fillcolor="#39e5819f"] ;
530 -> 534 ;
535 [label=<gini = 0.0<br/>samples = 8<br/>value = [0, 8, 0]<br/>class = Banker>, fillcolor="#39e581ff"] ;
534 -> 535 ;
536 [label=<Regular Count &le; -10.5<br/>gini = 0.556<br/>samples = 13<br/>value = [1, 7, 5]<br/>class = Banker>, fillcolor="#39e58140"] ;
534 -> 536 ;
537 [label=<Player Count &le; 8261.0<br/>gini = 0.219<br/>samples = 8<br/>value = [1, 7, 0]<br/>class = Banker>, fillcolor="#39e581db"] ;
536 -> 537 ;
538 [label=<Bank Count &le; -7858.5<br/>gini = 0.444<br/>samples = 3<br/>value = [1, 2, 0]<br/>class = Banker>, fillcolor="#39e5817f"] ;
537 -> 538 ;
539 [label=<gini = 0.0<br/>samples = 1<br/>value = [1, 0, 0]<br/>class = Player>, fillcolor="#e58139ff"] ;
538 -> 539 ;
540 [label=<gini = 0.0<br/>samples = 2<br/>value = [0, 2, 0]<br/>class = Banker>, fillcolor="#39e581ff"] ;
538 -> 540 ;
541 [label=<gini = 0.0<br/>samples = 5<br/>value = [0, 5, 0]<br/>class = Banker>, fillcolor="#39e581ff"] ;
537 -> 541 ;
542 [label=<gini = 0.0<br/>samples = 5<br/>value = [0, 0, 5]<br/>class = Tie>, fillcolor="#8139e5ff"] ;
536 -> 542 ;
543 [label=<gini = 0.0<br/>samples = 4<br/>value = [0, 0, 4]<br/>class = Tie>, fillcolor="#8139e5ff"] ;
529 -> 543 ;
544 [label=<Bank Count &le; -8202.0<br/>gini = 0.5<br/>samples = 8<br/>value = [4, 0, 4]<br/>class = Player>, fillcolor="#e5813900"] ;
528 -> 544 ;
545 [label=<gini = 0.0<br/>samples = 3<br/>value = [0, 0, 3]<br/>class = Tie>, fillcolor="#8139e5ff"] ;
544 -> 545 ;
546 [label=<Bank Count &le; -8013.5<br/>gini = 0.32<br/>samples = 5<br/>value = [4, 0, 1]<br/>class = Player>, fillcolor="#e58139bf"] ;
544 -> 546 ;
547 [label=<gini = 0.0<br/>samples = 4<br/>value = [4, 0, 0]<br/>class = Player>, fillcolor="#e58139ff"] ;
546 -> 547 ;
548 [label=<gini = 0.0<br/>samples = 1<br/>value = [0, 0, 1]<br/>class = Tie>, fillcolor="#8139e5ff"] ;
546 -> 548 ;
549 [label=<gini = 0.0<br/>samples = 5<br/>value = [5, 0, 0]<br/>class = Player>, fillcolor="#e58139ff"] ;
319 -> 549 ;
550 [label=<Tie Count &le; 76449.5<br/>gini = 0.292<br/>samples = 12<br/>value = [10, 1, 1]<br/>class = Player>, fillcolor="#e58139d1"] ;
318 -> 550 ;
551 [label=<gini = 0.0<br/>samples = 10<br/>value = [10, 0, 0]<br/>class = Player>, fillcolor="#e58139ff"] ;
550 -> 551 ;
552 [label=<Player Count &le; 16345.0<br/>gini = 0.5<br/>samples = 2<br/>value = [0, 1, 1]<br/>class = Banker>, fillcolor="#39e58100"] ;
550 -> 552 ;
553 [label=<gini = 0.0<br/>samples = 1<br/>value = [0, 1, 0]<br/>class = Banker>, fillcolor="#39e581ff"] ;
552 -> 553 ;
554 [label=<gini = 0.0<br/>samples = 1<br/>value = [0, 0, 1]<br/>class = Tie>, fillcolor="#8139e5ff"] ;
552 -> 554 ;
555 [label=<Player Count &le; -8220.5<br/>gini = 0.584<br/>samples = 2676<br/>value = [1292, 1111, 273]<br/>class = Player>, fillcolor="#e581391d"] ;
215 -> 555 ;
556 [label=<Player Count &le; -8447.5<br/>gini = 0.54<br/>samples = 40<br/>value = [12, 24, 4]<br/>class = Banker>, fillcolor="#39e5816d"] ;
555 -> 556 ;
557 [label=<Player Count &le; -8601.0<br/>gini = 0.635<br/>samples = 20<br/>value = [9, 7, 4]<br/>class = Player>, fillcolor="#e5813927"] ;
556 -> 557 ;
558 [label=<Player Count &le; -8658.5<br/>gini = 0.512<br/>samples = 11<br/>value = [1, 7, 3]<br/>class = Banker>, fillcolor="#39e58180"] ;
557 -> 558 ;
559 [label=<gini = 0.0<br/>samples = 2<br/>value = [0, 0, 2]<br/>class = Tie>, fillcolor="#8139e5ff"] ;
558 -> 559 ;
560 [label=<Regular Count &le; -10.0<br/>gini = 0.37<br/>samples = 9<br/>value = [1, 7, 1]<br/>class = Banker>, fillcolor="#39e581bf"] ;
558 -> 560 ;
561 [label=<Regular Count &le; -18.0<br/>gini = 0.5<br/>samples = 2<br/>value = [1, 0, 1]<br/>class = Player>, fillcolor="#e5813900"] ;
560 -> 561 ;
562 [label=<gini = 0.0<br/>samples = 1<br/>value = [0, 0, 1]<br/>class = Tie>, fillcolor="#8139e5ff"] ;
561 -> 562 ;
563 [label=<gini = 0.0<br/>samples = 1<br/>value = [1, 0, 0]<br/>class = Player>, fillcolor="#e58139ff"] ;
561 -> 563 ;
564 [label=<gini = 0.0<br/>samples = 7<br/>value = [0, 7, 0]<br/>class = Banker>, fillcolor="#39e581ff"] ;
560 -> 564 ;
565 [label=<Player Count &le; -8531.5<br/>gini = 0.198<br/>samples = 9<br/>value = [8, 0, 1]<br/>class = Player>, fillcolor="#e58139df"] ;
557 -> 565 ;
566 [label=<gini = 0.0<br/>samples = 7<br/>value = [7, 0, 0]<br/>class = Player>, fillcolor="#e58139ff"] ;
565 -> 566 ;
567 [label=<Bank Count &le; 8512.5<br/>gini = 0.5<br/>samples = 2<br/>value = [1, 0, 1]<br/>class = Player>, fillcolor="#e5813900"] ;
565 -> 567 ;
568 [label=<gini = 0.0<br/>samples = 1<br/>value = [0, 0, 1]<br/>class = Tie>, fillcolor="#8139e5ff"] ;
567 -> 568 ;
569 [label=<gini = 0.0<br/>samples = 1<br/>value = [1, 0, 0]<br/>class = Player>, fillcolor="#e58139ff"] ;
567 -> 569 ;
570 [label=<Regular Count &le; 5.5<br/>gini = 0.255<br/>samples = 20<br/>value = [3, 17, 0]<br/>class = Banker>, fillcolor="#39e581d2"] ;
556 -> 570 ;
571 [label=<Tie Count &le; 50610.5<br/>gini = 0.188<br/>samples = 19<br/>value = [2, 17, 0]<br/>class = Banker>, fillcolor="#39e581e1"] ;
570 -> 571 ;
572 [label=<gini = 0.0<br/>samples = 12<br/>value = [0, 12, 0]<br/>class = Banker>, fillcolor="#39e581ff"] ;
571 -> 572 ;
573 [label=<Tie Count &le; 56731.5<br/>gini = 0.408<br/>samples = 7<br/>value = [2, 5, 0]<br/>class = Banker>, fillcolor="#39e58199"] ;
571 -> 573 ;
574 [label=<gini = 0.0<br/>samples = 1<br/>value = [1, 0, 0]<br/>class = Player>, fillcolor="#e58139ff"] ;
573 -> 574 ;
575 [label=<Bank Count &le; 8232.5<br/>gini = 0.278<br/>samples = 6<br/>value = [1, 5, 0]<br/>class = Banker>, fillcolor="#39e581cc"] ;
573 -> 575 ;
576 [label=<gini = 0.0<br/>samples = 3<br/>value = [0, 3, 0]<br/>class = Banker>, fillcolor="#39e581ff"] ;
575 -> 576 ;
577 [label=<Player Count &le; -8316.0<br/>gini = 0.444<br/>samples = 3<br/>value = [1, 2, 0]<br/>class = Banker>, fillcolor="#39e5817f"] ;
575 -> 577 ;
578 [label=<gini = 0.0<br/>samples = 2<br/>value = [0, 2, 0]<br/>class = Banker>, fillcolor="#39e581ff"] ;
577 -> 578 ;
579 [label=<gini = 0.0<br/>samples = 1<br/>value = [1, 0, 0]<br/>class = Player>, fillcolor="#e58139ff"] ;
577 -> 579 ;
580 [label=<gini = 0.0<br/>samples = 1<br/>value = [1, 0, 0]<br/>class = Player>, fillcolor="#e58139ff"] ;
570 -> 580 ;
581 [label=<Tie Count &le; 127101.0<br/>gini = 0.584<br/>samples = 2636<br/>value = [1280, 1087, 269]<br/>class = Player>, fillcolor="#e5813920"] ;
555 -> 581 ;
582 [label=<Tie Count &le; 126033.0<br/>gini = 0.583<br/>samples = 2615<br/>value = [1268, 1084, 263]<br/>class = Player>, fillcolor="#e581391f"] ;
581 -> 582 ;
583 [label=<Player Count &le; 6278.5<br/>gini = 0.583<br/>samples = 2609<br/>value = [1268, 1078, 263]<br/>class = Player>, fillcolor="#e5813920"] ;
582 -> 583 ;
584 [label=<Player Count &le; 6043.5<br/>gini = 0.582<br/>samples = 2501<br/>value = [1208, 1046, 247]<br/>class = Player>, fillcolor="#e581391c"] ;
583 -> 584 ;
585 [label=<Player Count &le; 5740.0<br/>gini = 0.582<br/>samples = 2463<br/>value = [1197, 1022, 244]<br/>class = Player>, fillcolor="#e581391f"] ;
584 -> 585 ;
586 [label=<Player Count &le; 5561.0<br/>gini = 0.582<br/>samples = 2433<br/>value = [1174, 1020, 239]<br/>class = Player>, fillcolor="#e581391c"] ;
585 -> 586 ;
587 [label=<Player Count &le; 5545.5<br/>gini = 0.582<br/>samples = 2410<br/>value = [1168, 1003, 239]<br/>class = Player>, fillcolor="#e581391e"] ;
586 -> 587 ;
588 [label=<Player Count &le; -5273.0<br/>gini = 0.581<br/>samples = 2406<br/>value = [1168, 1003, 235]<br/>class = Player>, fillcolor="#e581391e"] ;
587 -> 588 ;
589 [label=<Player Count &le; -5430.5<br/>gini = 0.567<br/>samples = 279<br/>value = [152, 99, 28]<br/>class = Player>, fillcolor="#e581394b"] ;
588 -> 589 ;
590 [label=<Player Count &le; -5481.0<br/>gini = 0.572<br/>samples = 259<br/>value = [136, 98, 25]<br/>class = Player>, fillcolor="#e581393c"] ;
589 -> 590 ;
591 [label=<Bank Count &le; 5602.5<br/>gini = 0.57<br/>samples = 252<br/>value = [135, 92, 25]<br/>class = Player>, fillcolor="#e5813945"] ;
590 -> 591 ;
592 [label=<Tie Count &le; -41083.5<br/>gini = 0.32<br/>samples = 16<br/>value = [13, 2, 1]<br/>class = Player>, fillcolor="#e58139c8"] ;
591 -> 592 ;
593 [label=<gini = 0.0<br/>samples = 1<br/>value = [0, 0, 1]<br/>class = Tie>, fillcolor="#8139e5ff"] ;
592 -> 593 ;
594 [label=<Tie Count &le; 10505.0<br/>gini = 0.231<br/>samples = 15<br/>value = [13, 2, 0]<br/>class = Player>, fillcolor="#e58139d8"] ;
592 -> 594 ;
595 [label=<Bank Count &le; 5449.5<br/>gini = 0.408<br/>samples = 7<br/>value = [5, 2, 0]<br/>class = Player>, fillcolor="#e5813999"] ;
594 -> 595 ;
596 [label=<gini = 0.0<br/>samples = 4<br/>value = [4, 0, 0]<br/>class = Player>, fillcolor="#e58139ff"] ;
595 -> 596 ;
597 [label=<Player Count &le; -5655.0<br/>gini = 0.444<br/>samples = 3<br/>value = [1, 2, 0]<br/>class = Banker>, fillcolor="#39e5817f"] ;
595 -> 597 ;
598 [label=<gini = 0.0<br/>samples = 1<br/>value = [1, 0, 0]<br/>class = Player>, fillcolor="#e58139ff"] ;
597 -> 598 ;
599 [label=<gini = 0.0<br/>samples = 2<br/>value = [0, 2, 0]<br/>class = Banker>, fillcolor="#39e581ff"] ;
597 -> 599 ;
600 [label=<gini = 0.0<br/>samples = 8<br/>value = [8, 0, 0]<br/>class = Player>, fillcolor="#e58139ff"] ;
594 -> 600 ;
601 [label=<Player Count &le; -5596.5<br/>gini = 0.577<br/>samples = 236<br/>value = [122, 90, 24]<br/>class = Player>, fillcolor="#e5813938"] ;
591 -> 601 ;
602 [label=<Tie Count &le; 27247.0<br/>gini = 0.575<br/>samples = 229<br/>value = [121, 84, 24]<br/>class = Player>, fillcolor="#e5813941"] ;
601 -> 602 ;
603 [label=<Tie Count &le; 25237.0<br/>gini = 0.577<br/>samples = 89<br/>value = [39, 42, 8]<br/>class = Banker>, fillcolor="#39e5810f"] ;
602 -> 603 ;
604 [label=<Player Count &le; -8138.0<br/>gini = 0.582<br/>samples = 80<br/>value = [39, 33, 8]<br/>class = Player>, fillcolor="#e5813921"] ;
603 -> 604 ;
605 [label=<gini = 0.0<br/>samples = 2<br/>value = [0, 0, 2]<br/>class = Tie>, fillcolor="#8139e5ff"] ;
604 -> 605 ;
606 [label=<Tie Count &le; 13047.0<br/>gini = 0.565<br/>samples = 78<br/>value = [39, 33, 6]<br/>class = Player>, fillcolor="#e5813922"] ;
604 -> 606 ;
607 [label=<Tie Count &le; -33428.5<br/>gini = 0.584<br/>samples = 45<br/>value = [17, 23, 5]<br/>class = Banker>, fillcolor="#39e58137"] ;
606 -> 607 ;
608 [label=<gini = 0.0<br/>samples = 3<br/>value = [3, 0, 0]<br/>class = Player>, fillcolor="#e58139ff"] ;
607 -> 608 ;
609 [label=<Regular Count &le; -0.5<br/>gini = 0.575<br/>samples = 42<br/>value = [14, 23, 5]<br/>class = Banker>, fillcolor="#39e58152"] ;
607 -> 609 ;
610 [label=<Player Count &le; -6774.5<br/>gini = 0.444<br/>samples = 3<br/>value = [1, 0, 2]<br/>class = Tie>, fillcolor="#8139e57f"] ;
609 -> 610 ;
611 [label=<gini = 0.0<br/>samples = 2<br/>value = [0, 0, 2]<br/>class = Tie>, fillcolor="#8139e5ff"] ;
610 -> 611 ;
612 [label=<gini = 0.0<br/>samples = 1<br/>value = [1, 0, 0]<br/>class = Player>, fillcolor="#e58139ff"] ;
610 -> 612 ;
613 [label=<Player Count &le; -5904.0<br/>gini = 0.535<br/>samples = 39<br/>value = [13, 23, 3]<br/>class = Banker>, fillcolor="#39e58162"] ;
609 -> 613 ;
614 [label=<Bank Count &le; 6869.5<br/>gini = 0.519<br/>samples = 37<br/>value = [11, 23, 3]<br/>class = Banker>, fillcolor="#39e58176"] ;
613 -> 614 ;
615 [label=<Tie Count &le; 2890.0<br/>gini = 0.449<br/>samples = 21<br/>value = [3, 15, 3]<br/>class = Banker>, fillcolor="#39e581aa"] ;
614 -> 615 ;
616 [label=<Player Count &le; -7023.0<br/>gini = 0.604<br/>samples = 13<br/>value = [3, 7, 3]<br/>class = Banker>, fillcolor="#39e58166"] ;
615 -> 616 ;
617 [label=<gini = 0.0<br/>samples = 3<br/>value = [0, 3, 0]<br/>class = Banker>, fillcolor="#39e581ff"] ;
616 -> 617 ;
618 [label=<Player Count &le; -6043.5<br/>gini = 0.66<br/>samples = 10<br/>value = [3, 4, 3]<br/>class = Banker>, fillcolor="#39e58124"] ;
616 -> 618 ;
619 [label=<Regular Count &le; 3.5<br/>gini = 0.612<br/>samples = 7<br/>value = [3, 1, 3]<br/>class = Player>, fillcolor="#e5813900"] ;
618 -> 619 ;
620 [label=<gini = 0.0<br/>samples = 2<br/>value = [0, 0, 2]<br/>class = Tie>, fillcolor="#8139e5ff"] ;
619 -> 620 ;
621 [label=<Regular Count &le; 6.5<br/>gini = 0.56<br/>samples = 5<br/>value = [3, 1, 1]<br/>class = Player>, fillcolor="#e581397f"] ;
619 -> 621 ;
622 [label=<Bank Count &le; 6534.0<br/>gini = 0.375<br/>samples = 4<br/>value = [3, 1, 0]<br/>class = Player>, fillcolor="#e58139aa"] ;
621 -> 622 ;
623 [label=<Tie Count &le; -9677.5<br/>gini = 0.5<br/>samples = 2<br/>value = [1, 1, 0]<br/>class = Player>, fillcolor="#e5813900"] ;
622 -> 623 ;
624 [label=<gini = 0.0<br/>samples = 1<br/>value = [1, 0, 0]<br/>class = Player>, fillcolor="#e58139ff"] ;
623 -> 624 ;
625 [label=<gini = 0.0<br/>samples = 1<br/>value = [0, 1, 0]<br/>class = Banker>, fillcolor="#39e581ff"] ;
623 -> 625 ;
626 [label=<gini = 0.0<br/>samples = 2<br/>value = [2, 0, 0]<br/>class = Player>, fillcolor="#e58139ff"] ;
622 -> 626 ;
627 [label=<gini = 0.0<br/>samples = 1<br/>value = [0, 0, 1]<br/>class = Tie>, fillcolor="#8139e5ff"] ;
621 -> 627 ;
628 [label=<gini = 0.0<br/>samples = 3<br/>value = [0, 3, 0]<br/>class = Banker>, fillcolor="#39e581ff"] ;
618 -> 628 ;
629 [label=<gini = 0.0<br/>samples = 8<br/>value = [0, 8, 0]<br/>class = Banker>, fillcolor="#39e581ff"] ;
615 -> 629 ;
630 [label=<Player Count &le; -7170.0<br/>gini = 0.5<br/>samples = 16<br/>value = [8, 8, 0]<br/>class = Player>, fillcolor="#e5813900"] ;
614 -> 630 ;
631 [label=<Tie Count &le; -2822.5<br/>gini = 0.473<br/>samples = 13<br/>value = [5, 8, 0]<br/>class = Banker>, fillcolor="#39e58160"] ;
630 -> 631 ;
632 [label=<gini = 0.0<br/>samples = 4<br/>value = [0, 4, 0]<br/>class = Banker>, fillcolor="#39e581ff"] ;
631 -> 632 ;
633 [label=<Bank Count &le; 7535.5<br/>gini = 0.494<br/>samples = 9<br/>value = [5, 4, 0]<br/>class = Player>, fillcolor="#e5813933"] ;
631 -> 633 ;
634 [label=<Bank Count &le; 7239.0<br/>gini = 0.32<br/>samples = 5<br/>value = [4, 1, 0]<br/>class = Player>, fillcolor="#e58139bf"] ;
633 -> 634 ;
635 [label=<Regular Count &le; 4.0<br/>gini = 0.5<br/>samples = 2<br/>value = [1, 1, 0]<br/>class = Player>, fillcolor="#e5813900"] ;
634 -> 635 ;
636 [label=<gini = 0.0<br/>samples = 1<br/>value = [1, 0, 0]<br/>class = Player>, fillcolor="#e58139ff"] ;
635 -> 636 ;
637 [label=<gini = 0.0<br/>samples = 1<br/>value = [0, 1, 0]<br/>class = Banker>, fillcolor="#39e581ff"] ;
635 -> 637 ;
638 [label=<gini = 0.0<br/>samples = 3<br/>value = [3, 0, 0]<br/>class = Player>, fillcolor="#e58139ff"] ;
634 -> 638 ;
639 [label=<Tie Count &le; 11697.5<br/>gini = 0.375<br/>samples = 4<br/>value = [1, 3, 0]<br/>class = Banker>, fillcolor="#39e581aa"] ;
633 -> 639 ;
640 [label=<gini = 0.0<br/>samples = 3<br/>value = [0, 3, 0]<br/>class = Banker>, fillcolor="#39e581ff"] ;
639 -> 640 ;
641 [label=<gini = 0.0<br/>samples = 1<br/>value = [1, 0, 0]<br/>class = Player>, fillcolor="#e58139ff"] ;
639 -> 641 ;
642 [label=<gini = 0.0<br/>samples = 3<br/>value = [3, 0, 0]<br/>class = Player>, fillcolor="#e58139ff"] ;
630 -> 642 ;
643 [label=<gini = 0.0<br/>samples = 2<br/>value = [2, 0, 0]<br/>class = Player>, fillcolor="#e58139ff"] ;
613 -> 643 ;
644 [label=<Tie Count &le; 15501.0<br/>gini = 0.463<br/>samples = 33<br/>value = [22, 10, 1]<br/>class = Player>, fillcolor="#e5813985"] ;
606 -> 644 ;
645 [label=<gini = 0.0<br/>samples = 5<br/>value = [5, 0, 0]<br/>class = Player>, fillcolor="#e58139ff"] ;
644 -> 645 ;
646 [label=<Tie Count &le; 16038.0<br/>gini = 0.503<br/>samples = 28<br/>value = [17, 10, 1]<br/>class = Player>, fillcolor="#e5813963"] ;
644 -> 646 ;
647 [label=<gini = 0.0<br/>samples = 2<br/>value = [0, 2, 0]<br/>class = Banker>, fillcolor="#39e581ff"] ;
646 -> 647 ;
648 [label=<Bank Count &le; 5782.0<br/>gini = 0.476<br/>samples = 26<br/>value = [17, 8, 1]<br/>class = Player>, fillcolor="#e5813980"] ;
646 -> 648 ;
649 [label=<Player Count &le; -5848.0<br/>gini = 0.611<br/>samples = 6<br/>value = [2, 3, 1]<br/>class = Banker>, fillcolor="#39e58140"] ;
648 -> 649 ;
650 [label=<gini = 0.0<br/>samples = 3<br/>value = [0, 3, 0]<br/>class = Banker>, fillcolor="#39e581ff"] ;
649 -> 650 ;
651 [label=<Regular Count &le; -4.0<br/>gini = 0.444<br/>samples = 3<br/>value = [2, 0, 1]<br/>class = Player>, fillcolor="#e581397f"] ;
649 -> 651 ;
652 [label=<gini = 0.0<br/>samples = 1<br/>value = [0, 0, 1]<br/>class = Tie>, fillcolor="#8139e5ff"] ;
651 -> 652 ;
653 [label=<gini = 0.0<br/>samples = 2<br/>value = [2, 0, 0]<br/>class = Player>, fillcolor="#e58139ff"] ;
651 -> 653 ;
654 [label=<Bank Count &le; 6415.0<br/>gini = 0.375<br/>samples = 20<br/>value = [15, 5, 0]<br/>class = Player>, fillcolor="#e58139aa"] ;
648 -> 654 ;
655 [label=<gini = 0.0<br/>samples = 6<br/>value = [6, 0, 0]<br/>class = Player>, fillcolor="#e58139ff"] ;
654 -> 655 ;
656 [label=<Player Count &le; -6850.5<br/>gini = 0.459<br/>samples = 14<br/>value = [9, 5, 0]<br/>class = Player>, fillcolor="#e5813971"] ;
654 -> 656 ;
657 [label=<Player Count &le; -7640.5<br/>gini = 0.375<br/>samples = 12<br/>value = [9, 3, 0]<br/>class = Player>, fillcolor="#e58139aa"] ;
656 -> 657 ;
658 [label=<Player Count &le; -7995.5<br/>gini = 0.5<br/>samples = 4<br/>value = [2, 2, 0]<br/>class = Player>, fillcolor="#e5813900"] ;
657 -> 658 ;
659 [label=<gini = 0.0<br/>samples = 2<br/>value = [2, 0, 0]<br/>class = Player>, fillcolor="#e58139ff"] ;
658 -> 659 ;
660 [label=<gini = 0.0<br/>samples = 2<br/>value = [0, 2, 0]<br/>class = Banker>, fillcolor="#39e581ff"] ;
658 -> 660 ;
661 [label=<Regular Count &le; -2.0<br/>gini = 0.219<br/>samples = 8<br/>value = [7, 1, 0]<br/>class = Player>, fillcolor="#e58139db"] ;
657 -> 661 ;
662 [label=<Tie Count &le; 20989.0<br/>gini = 0.5<br/>samples = 2<br/>value = [1, 1, 0]<br/>class = Player>, fillcolor="#e5813900"] ;
661 -> 662 ;
663 [label=<gini = 0.0<br/>samples = 1<br/>value = [0, 1, 0]<br/>class = Banker>, fillcolor="#39e581ff"] ;
662 -> 663 ;
664 [label=<gini = 0.0<br/>samples = 1<br/>value = [1, 0, 0]<br/>class = Player>, fillcolor="#e58139ff"] ;
662 -> 664 ;
665 [label=<gini = 0.0<br/>samples = 6<br/>value = [6, 0, 0]<br/>class = Player>, fillcolor="#e58139ff"] ;
661 -> 665 ;
666 [label=<gini = 0.0<br/>samples = 2<br/>value = [0, 2, 0]<br/>class = Banker>, fillcolor="#39e581ff"] ;
656 -> 666 ;
667 [label=<gini = 0.0<br/>samples = 9<br/>value = [0, 9, 0]<br/>class = Banker>, fillcolor="#39e581ff"] ;
603 -> 667 ;
668 [label=<Tie Count &le; 30924.0<br/>gini = 0.554<br/>samples = 140<br/>value = [82, 42, 16]<br/>class = Player>, fillcolor="#e5813968"] ;
602 -> 668 ;
669 [label=<gini = 0.0<br/>samples = 12<br/>value = [12, 0, 0]<br/>class = Player>, fillcolor="#e58139ff"] ;
668 -> 669 ;
670 [label=<Tie Count &le; 33273.5<br/>gini = 0.578<br/>samples = 128<br/>value = [70, 42, 16]<br/>class = Player>, fillcolor="#e5813953"] ;
668 -> 670 ;
671 [label=<gini = 0.0<br/>samples = 3<br/>value = [0, 0, 3]<br/>class = Tie>, fillcolor="#8139e5ff"] ;
670 -> 671 ;
672 [label=<Tie Count &le; 45121.5<br/>gini = 0.563<br/>samples = 125<br/>value = [70, 42, 13]<br/>class = Player>, fillcolor="#e5813956"] ;
670 -> 672 ;
673 [label=<Bank Count &le; 5782.0<br/>gini = 0.526<br/>samples = 35<br/>value = [16, 18, 1]<br/>class = Banker>, fillcolor="#39e5811b"] ;
672 -> 673 ;
674 [label=<gini = 0.0<br/>samples = 4<br/>value = [4, 0, 0]<br/>class = Player>, fillcolor="#e58139ff"] ;
673 -> 674 ;
675 [label=<Regular Count &le; -9.5<br/>gini = 0.512<br/>samples = 31<br/>value = [12, 18, 1]<br/>class = Banker>, fillcolor="#39e58151"] ;
673 -> 675 ;
676 [label=<gini = 0.0<br/>samples = 3<br/>value = [3, 0, 0]<br/>class = Player>, fillcolor="#e58139ff"] ;
675 -> 676 ;
677 [label=<Bank Count &le; 7759.5<br/>gini = 0.482<br/>samples = 28<br/>value = [9, 18, 1]<br/>class = Banker>, fillcolor="#39e58179"] ;
675 -> 677 ;
678 [label=<Regular Count &le; 3.0<br/>gini = 0.403<br/>samples = 25<br/>value = [7, 18, 0]<br/>class = Banker>, fillcolor="#39e5819c"] ;
677 -> 678 ;
679 [label=<Tie Count &le; 39177.0<br/>gini = 0.375<br/>samples = 24<br/>value = [6, 18, 0]<br/>class = Banker>, fillcolor="#39e581aa"] ;
678 -> 679 ;
680 [label=<gini = 0.0<br/>samples = 8<br/>value = [0, 8, 0]<br/>class = Banker>, fillcolor="#39e581ff"] ;
679 -> 680 ;
681 [label=<Tie Count &le; 42572.5<br/>gini = 0.469<br/>samples = 16<br/>value = [6, 10, 0]<br/>class = Banker>, fillcolor="#39e58166"] ;
679 -> 681 ;
682 [label=<Player Count &le; -6032.0<br/>gini = 0.469<br/>samples = 8<br/>value = [5, 3, 0]<br/>class = Player>, fillcolor="#e5813966"] ;
681 -> 682 ;
683 [label=<Regular Count &le; -1.0<br/>gini = 0.278<br/>samples = 6<br/>value = [5, 1, 0]<br/>class = Player>, fillcolor="#e58139cc"] ;
682 -> 683 ;
684 [label=<gini = 0.0<br/>samples = 4<br/>value = [4, 0, 0]<br/>class = Player>, fillcolor="#e58139ff"] ;
683 -> 684 ;
685 [label=<Bank Count &le; 6951.5<br/>gini = 0.5<br/>samples = 2<br/>value = [1, 1, 0]<br/>class = Player>, fillcolor="#e5813900"] ;
683 -> 685 ;
686 [label=<gini = 0.0<br/>samples = 1<br/>value = [0, 1, 0]<br/>class = Banker>, fillcolor="#39e581ff"] ;
685 -> 686 ;
687 [label=<gini = 0.0<br/>samples = 1<br/>value = [1, 0, 0]<br/>class = Player>, fillcolor="#e58139ff"] ;
685 -> 687 ;
688 [label=<gini = 0.0<br/>samples = 2<br/>value = [0, 2, 0]<br/>class = Banker>, fillcolor="#39e581ff"] ;
682 -> 688 ;
689 [label=<Regular Count &le; -6.0<br/>gini = 0.219<br/>samples = 8<br/>value = [1, 7, 0]<br/>class = Banker>, fillcolor="#39e581db"] ;
681 -> 689 ;
690 [label=<Tie Count &le; 43778.5<br/>gini = 0.444<br/>samples = 3<br/>value = [1, 2, 0]<br/>class = Banker>, fillcolor="#39e5817f"] ;
689 -> 690 ;
691 [label=<gini = 0.0<br/>samples = 1<br/>value = [1, 0, 0]<br/>class = Player>, fillcolor="#e58139ff"] ;
690 -> 691 ;
692 [label=<gini = 0.0<br/>samples = 2<br/>value = [0, 2, 0]<br/>class = Banker>, fillcolor="#39e581ff"] ;
690 -> 692 ;
693 [label=<gini = 0.0<br/>samples = 5<br/>value = [0, 5, 0]<br/>class = Banker>, fillcolor="#39e581ff"] ;
689 -> 693 ;
694 [label=<gini = 0.0<br/>samples = 1<br/>value = [1, 0, 0]<br/>class = Player>, fillcolor="#e58139ff"] ;
678 -> 694 ;
695 [label=<Player Count &le; -8071.5<br/>gini = 0.444<br/>samples = 3<br/>value = [2, 0, 1]<br/>class = Player>, fillcolor="#e581397f"] ;
677 -> 695 ;
696 [label=<gini = 0.0<br/>samples = 1<br/>value = [0, 0, 1]<br/>class = Tie>, fillcolor="#8139e5ff"] ;
695 -> 696 ;
697 [label=<gini = 0.0<br/>samples = 2<br/>value = [2, 0, 0]<br/>class = Player>, fillcolor="#e58139ff"] ;
695 -> 697 ;
698 [label=<Player Count &le; -6526.0<br/>gini = 0.551<br/>samples = 90<br/>value = [54, 24, 12]<br/>class = Player>, fillcolor="#e5813974"] ;
672 -> 698 ;
699 [label=<Regular Count &le; -4.5<br/>gini = 0.619<br/>samples = 55<br/>value = [27, 18, 10]<br/>class = Player>, fillcolor="#e581393e"] ;
698 -> 699 ;
700 [label=<Player Count &le; -7556.5<br/>gini = 0.662<br/>samples = 32<br/>value = [11, 12, 9]<br/>class = Banker>, fillcolor="#39e5810c"] ;
699 -> 700 ;
701 [label=<Player Count &le; -8098.5<br/>gini = 0.52<br/>samples = 14<br/>value = [3, 9, 2]<br/>class = Banker>, fillcolor="#39e5818b"] ;
700 -> 701 ;
702 [label=<Regular Count &le; -13.0<br/>gini = 0.653<br/>samples = 7<br/>value = [3, 2, 2]<br/>class = Player>, fillcolor="#e5813933"] ;
701 -> 702 ;
703 [label=<gini = 0.0<br/>samples = 2<br/>value = [0, 2, 0]<br/>class = Banker>, fillcolor="#39e581ff"] ;
702 -> 703 ;
704 [label=<Bank Count &le; 8216.5<br/>gini = 0.48<br/>samples = 5<br/>value = [3, 0, 2]<br/>class = Player>, fillcolor="#e5813955"] ;
702 -> 704 ;
705 [label=<Regular Count &le; -9.5<br/>gini = 0.444<br/>samples = 3<br/>value = [1, 0, 2]<br/>class = Tie>, fillcolor="#8139e57f"] ;
704 -> 705 ;
706 [label=<gini = 0.0<br/>samples = 1<br/>value = [1, 0, 0]<br/>class = Player>, fillcolor="#e58139ff"] ;
705 -> 706 ;
707 [label=<gini = 0.0<br/>samples = 2<br/>value = [0, 0, 2]<br/>class = Tie>, fillcolor="#8139e5ff"] ;
705 -> 707 ;
708 [label=<gini = 0.0<br/>samples = 2<br/>value = [2, 0, 0]<br/>class = Player>, fillcolor="#e58139ff"] ;
704 -> 708 ;
709 [label=<gini = 0.0<br/>samples = 7<br/>value = [0, 7, 0]<br/>class = Banker>, fillcolor="#39e581ff"] ;
701 -> 709 ;
710 [label=<Tie Count &le; 70082.0<br/>gini = 0.623<br/>samples = 18<br/>value = [8, 3, 7]<br/>class = Player>, fillcolor="#e5813917"] ;
700 -> 710 ;
711 [label=<Tie Count &le; 60889.5<br/>gini = 0.571<br/>samples = 7<br/>value = [1, 2, 4]<br/>class = Tie>, fillcolor="#8139e566"] ;
710 -> 711 ;
712 [label=<Player Count &le; -7128.5<br/>gini = 0.625<br/>samples = 4<br/>value = [1, 2, 1]<br/>class = Banker>, fillcolor="#39e58155"] ;
711 -> 712 ;
713 [label=<Regular Count &le; -8.5<br/>gini = 0.5<br/>samples = 2<br/>value = [1, 0, 1]<br/>class = Player>, fillcolor="#e5813900"] ;
712 -> 713 ;
714 [label=<gini = 0.0<br/>samples = 1<br/>value = [1, 0, 0]<br/>class = Player>, fillcolor="#e58139ff"] ;
713 -> 714 ;
715 [label=<gini = 0.0<br/>samples = 1<br/>value = [0, 0, 1]<br/>class = Tie>, fillcolor="#8139e5ff"] ;
713 -> 715 ;
716 [label=<gini = 0.0<br/>samples = 2<br/>value = [0, 2, 0]<br/>class = Banker>, fillcolor="#39e581ff"] ;
712 -> 716 ;
717 [label=<gini = 0.0<br/>samples = 3<br/>value = [0, 0, 3]<br/>class = Tie>, fillcolor="#8139e5ff"] ;
711 -> 717 ;
718 [label=<Player Count &le; -6764.0<br/>gini = 0.512<br/>samples = 11<br/>value = [7, 1, 3]<br/>class = Player>, fillcolor="#e5813980"] ;
710 -> 718 ;
719 [label=<Bank Count &le; 7641.0<br/>gini = 0.406<br/>samples = 8<br/>value = [6, 1, 1]<br/>class = Player>, fillcolor="#e58139b6"] ;
718 -> 719 ;
720 [label=<Regular Count &le; -7.5<br/>gini = 0.245<br/>samples = 7<br/>value = [6, 1, 0]<br/>class = Player>, fillcolor="#e58139d4"] ;
719 -> 720 ;
721 [label=<gini = 0.0<br/>samples = 5<br/>value = [5, 0, 0]<br/>class = Player>, fillcolor="#e58139ff"] ;
720 -> 721 ;
722 [label=<Player Count &le; -7242.5<br/>gini = 0.5<br/>samples = 2<br/>value = [1, 1, 0]<br/>class = Player>, fillcolor="#e5813900"] ;
720 -> 722 ;
723 [label=<gini = 0.0<br/>samples = 1<br/>value = [1, 0, 0]<br/>class = Player>, fillcolor="#e58139ff"] ;
722 -> 723 ;
724 [label=<gini = 0.0<br/>samples = 1<br/>value = [0, 1, 0]<br/>class = Banker>, fillcolor="#39e581ff"] ;
722 -> 724 ;
725 [label=<gini = 0.0<br/>samples = 1<br/>value = [0, 0, 1]<br/>class = Tie>, fillcolor="#8139e5ff"] ;
719 -> 725 ;
726 [label=<Tie Count &le; 112750.5<br/>gini = 0.444<br/>samples = 3<br/>value = [1, 0, 2]<br/>class = Tie>, fillcolor="#8139e57f"] ;
718 -> 726 ;
727 [label=<gini = 0.0<br/>samples = 2<br/>value = [0, 0, 2]<br/>class = Tie>, fillcolor="#8139e5ff"] ;
726 -> 727 ;
728 [label=<gini = 0.0<br/>samples = 1<br/>value = [1, 0, 0]<br/>class = Player>, fillcolor="#e58139ff"] ;
726 -> 728 ;
729 [label=<Regular Count &le; 0.5<br/>gini = 0.446<br/>samples = 23<br/>value = [16, 6, 1]<br/>class = Player>, fillcolor="#e5813996"] ;
699 -> 729 ;
730 [label=<Regular Count &le; -2.5<br/>gini = 0.291<br/>samples = 17<br/>value = [14, 3, 0]<br/>class = Player>, fillcolor="#e58139c8"] ;
729 -> 730 ;
731 [label=<gini = 0.0<br/>samples = 7<br/>value = [7, 0, 0]<br/>class = Player>, fillcolor="#e58139ff"] ;
730 -> 731 ;
732 [label=<Tie Count &le; 119765.0<br/>gini = 0.42<br/>samples = 10<br/>value = [7, 3, 0]<br/>class = Player>, fillcolor="#e5813992"] ;
730 -> 732 ;
733 [label=<Player Count &le; -7924.0<br/>gini = 0.5<br/>samples = 6<br/>value = [3, 3, 0]<br/>class = Player>, fillcolor="#e5813900"] ;
732 -> 733 ;
734 [label=<gini = 0.0<br/>samples = 2<br/>value = [2, 0, 0]<br/>class = Player>, fillcolor="#e58139ff"] ;
733 -> 734 ;
735 [label=<Regular Count &le; -0.5<br/>gini = 0.375<br/>samples = 4<br/>value = [1, 3, 0]<br/>class = Banker>, fillcolor="#39e581aa"] ;
733 -> 735 ;
